tree
version=v4
num_class=1
num_tree_per_iteration=1
label_index=0
max_feature_idx=9
objective=binary sigmoid:1
feature_names=Heart_Rate Respiratory_Rate Body_Temperature Oxygen_Saturation Systolic_Blood_Pressure Diastolic_Blood_Pressure Age Gender Weight_(kg) Height_(m)
feature_infos=[60:99] [12:19] [36.000004425624418:37.499991775877852] [95.000041774501682:99.99996250272244] [110:139] [70:89] [18:89] -1:1:0 [50.000156476060802:99.999764658746045] [1.5000006649512407:1.9999971351632664]
tree_sizes=3398 3469 3433 3447 3452 3429 3442 3459 3440 3453 3439 3449 3442 3445 3457 3452 3450 3461 3476 3453 3478 3460 3446 3482 3447 3440 3448 3445 3460 3438 3442 3432 3449 3451 3453 3452 3460 3447 3440 3499 3446 3448 3445 3468 3445 3444 3442 3445 3463 3444 3460 3457 3440 3452 3468 3451 3445 3453 3454 3466 3445 3491 3454 3439 3450 3455 3446 3465 3459 3461 3467 3456 3445 3447 3455 3453 3460 3434 3454 3449 3426 3440 3445 3457 3453 3501 3432 3441 3456 3448 3442 3459 3451 3458 3463 3443 3457 3452 3464 3468 3456 3458 3461 3452 3455 3476 3461 3452 3465 3467 3454 3449 3457 3452 3477 3466 3442 3445 3461 3472 3464 3435 3460 3474 3478 3459 3466 3471 3458 3441 3450 3449 3466 3458 3458 3460 3445 3444 3446 3468 3483 3453 3477 3468 3488 3465 3465 3456 3435 3462 3475 3469 3448 3469 3449 3481 3455 3453 3447 3441 3452 3453 3470 3469 3456 3458 3452 3441 3491 3428 3468 3437 3452 3423 3463 3472 3467 3475 3462 3475 3416 3462 3466 3480 3470 3471 3456 3444 3438 3436 3438 3451 3435 3464 3450 3443 3444 3476 3424 3476 3449 3456 3436 3438 3436 3436 3493 3466 3448 3509 3450 3440 3466 3476 3483 3451 3461 3441 3445 3458 3473 3446 3452 3479 3441 3470 3441 3459 3453 3436 3479 3457 3466 3468 3447 3448 3457 3430 3413 3452 3440 3434 3466 3474 3464 3434 3437 3453 3474 3432 3438 3461 3432 3426 3457 3449 3442 3474 3476 3456 3454 3435 3440 3453 3444 3473 3457 3472 3475 3472 3450 3427 3429 3447 3452 3471 3460 3472 3428 3417 3471 3459 3460 3461 3441 3448 3465 3496 3467 3458 3472 3479 3486 3469 3468 3451 3489 3472 3453 3455 3453 3499 3431 3424 3484 3454 3444 3466 3459 3449 3461 3448 3471 3468 3455 3440 3464 3467 3483 3445 3448 3437 3483 3433 3477 3468 3432 3493 3457 3462 3418 3472 3407 3431 3423 3488 3460 3455 3428 3463 3413 3456 3407 3442 3450 3449 3430 3483 3471 3443 3469 3464 3476 3437 3465 3457 3463 3478 3459 3509 3426 3462 3463 3445 3434 3478 3469 3474 3439 3482 3470 3432 3436 3440 3456 3465 3432 3463 3456 3464 3444 3461 3472 3454 3472 3427 3444 3432 3490 3426 3452 3487 3447 3484 3503 3476 3472 3473 3456 3428 3486 3421 3430 3481 3436 3415 3476 3474 3434 3466 3465 3445 3463 3464 3473 3462 3473 3415 3480 3425 3482 3483 3447 3436 3468 3421 3434 3425 3423 3454 3496 3434 3424 3480 3456 3402 3394 3509 3470 3436 3460 3460 3431 3495 3474 3418 3413 3469 3396 3419 3473 3485 3439 3485 3461 3484 3500 3473 3492 3498 3429 3471 3440 3466 3422 3430 3423 3463 3457 3474 3469 3445 3467 3484 3497 3450 3443 3468 3472 3467 3477 3469 3463 3412 3471 3469 3503 3512 3468 3495 3477 3482 3495 3415 3478 3439 3442 3481 3491 3492 3428 3481 3500 3438 3491 3429 3431 3447 3441 3456 3481 3460 3481 3471 3469 3484 3490 3468 3486 3439 3500 3438 3432 3485 3425 3501 3481 3421 3435 3426 3471 3460 3495 3462 3445 3480 3487 3434 3427 3501 3484 3488 3480 3448 3479 3504 3446 3476 3456 3462 3453 3474 3475 3455 3452 3453 3484 3473 3437 3448 3455 3439 3470 3466 3478 3495 3464 3476 3476 3494 3477 3437 3460 3482 3456 3471 3442 3467 3425 3453 3436 3443 3419 3431 3438 3449 3490 3488 3463 3455 3492 3463 3453 3465 3454 3495 3515 3453 3495 3470 3471 3479 3500 3476 3486 3470 3480 3469 3480 3479 3470 3468 3484 3466 3479 3489 3488 3491 3441 3516 3500 3495 3490 3458 3487 3497 3497 3457 3493 3490 3452 3441 3474 3452 3493 3456 3504 3502 3484 3461 3499 3432 3518 3524 3487 3487 3470 3506 3476 3487 3437 3441 3463 3450 3499 3413 3491 3420 3497 3437 3473 3472 3500 3490 3520 3469 3489 3492 3463 3461 3504 3486 3473 3469 3465 3478 3466 3441 3493 3519 3456 3481 3446 3496 3468 3464 3498 3462 3491 3501 3495 3503 3497 3497 3447 3527 3498 3480 3496 3477 3460 3475 3479 3483 3491 3494 3490 3504 3489 3507 3466 3481 3451 3474 3500 3496 3418 3456 3522 3489 3454 3452 3486 3476 3492 3489 3462 3459 3496 3461 3439 3458 3498 3469 3472 3471 3503 3504 3493 3488 3475 3476 3481 3499 3485 3505 3451 3452 3423 3496 3467 3507 3485 3478 3480 3494 3498 3493 3492 3491 3509 3513 3483 3482 3516 3476 3501 3483 3459 3480 3470 3481 3491 3508 3481 3492 3497 3476 3477 3479 3468 3492 3484 3517 3479 3509 3479 3483 3487 3456 3493 3487 3490 3504 3491 3512 3507 3494 3495 3487 3485 3480 3490 3500 3506 3476 3488 3509 3476 3506 3443 3474 3477 3478 3482 3475 3481 3490 3480 3475 3503 3481 3456 3503 3452 3514 3467 3514 3465 3519 3494 3513 3510 3521 3471 3492 3499 3513 3513 3500 3493 3497 3450 3465 3497 3492 3527 3491 3521 3494 3513 3510 3485 3452 3511 3498 3494 3484 3471 3509 3504 3532 3491 3482 3497 3529 3463 3480 3521 3498 3502 3486 3484 3517 3475 3471 3476 3487 3517 3482 3497 3504 3462 3475 3494 3494 3491 3509 3491 3468 3485 3483 3487 3456 3520 3524 3508 3530 3495 3495 3485 3491 3509 3461 3506 3486 3480 3507 3492 3498 3493 3490 3513 3487 3500 3510 3553 3509 3505 3518 3497 3511 3518 3516 3504 3509 3502 3526 3510 3518 3503 3505 3508 3459 3492 3494 3507 3486 3505 3508 3487 3498 3476 3492 3499 3509 3486 3490 3511 3488 3499 3494 3507 3499 3485 3499 3527 3501 3515 3447 3499 3491 3462 3483 3507 3510 3488 3525 3517 3506 3526 3466 3510 3479 3464 3517 3518 3481 3517 3505 3484 3476 3484 3485 3489 3513 3518 3508 3510 3516 3503 3512 3513 3487 3474 3497 3514 3513 3501 3495

Tree=0
num_leaves=31
num_cat=0
split_feature=0 8 9 9 8 8 9 9 8 8 9 8 9 8 9 8 9 9 8 9 8 9 8 9 8 8 9 8 9 9
split_gain=33846.1 3214.48 12360.4 10222.7 17499.3 3994.94 7039.03 2606.5 7408.06 1199.36 2240.67 929.775 2889.59 921.189 1874.12 708.018 2721.59 585.371 1035.45 397.987 779.025 376.459 651.219 316.047 637.798 284.669 473.882 272.371 493.729 161.585
threshold=90.500000000000014 58.420164396983729 1.7159527493037103 1.6681419497455832 75.937373725964008 66.104166652342798 1.8321987610474275 1.7459824109786997 87.430933728465206 70.830414236307732 1.5664668196145459 71.040847189696407 1.9249612536994478 80.759440694173563 1.6171473499045301 94.735419288872151 1.8032046932032171 1.660110343267893 52.929571982186125 1.7579009508898356 56.034149164053296 1.8660216519503128 62.742812064969847 1.7913562620462293 60.782403800565739 85.106532166939857 1.695806857730892 89.565598138640283 1.7159527493037103 1.9015729459449549
decision_type=2 2 2 2 2 2 2 2 2 2 2 2 2 2 2 2 2 2 2 2 2 2 2 2 2 2 2 2 2 2
left_child=1 2 17 4 9 6 23 8 25 -3 -11 12 29 14 -6 -13 -17 -1 -19 20 -4 22 -8 -5 -25 -7 -27 28 -10 -9
right_child=-2 3 19 5 13 7 21 11 27 10 -12 15 -14 -15 -16 16 -18 18 -20 -21 -22 -23 -24 24 -26 26 -28 -29 -30 -31
leaf_value=-0.0019952992001348452 0.197320695048738 0.0021641042135851357 0.18285795935975035 -0.0020438807738280135 0.18659035108812677 -0.0012248798778146941 0.19296747630910524 -0.0020969494815266249 0.18963614842098842 0.17491808085984528 0.0079364081505004791 0.00043821394611566478 0.17312994885089436 0.195341755114008 0.020757374681178109 0.17556792648042996 0.0027254398685305492 0.1636624145881245 0.0073319913318663499 0.19625316709201365 0.013288152041888962 0.1943967437377524 0.031079466992974009 0.16525646383827619 0.0092742426540905892 0.17458197653674501 0.0054517575318507039 0.19373984886162757 0.012183608877601615 0.061632693028965811
leaf_weight=1336.2592044174671 7229.1149196624756 2080.3154585659504 259.82125228643417 916.85484132170677 550.56173229217529 1422.5338236987591 151.35460665822029 779.71310546994209 105.22511368989944 328.39212021231651 517.14901846647263 5925.2710346281528 364.04897153377533 3211.3607564270496 246.60577592253685 292.23657166957855 1031.0565049946308 165.06878024339676 295.22875499725342 2067.0999822020531 91.510940104722977 1011.6073133647442 105.22511368989944 93.755077600479126 217.18263986706734 64.082592934370041 116.69514977931976 798.16490265727043 62.337152659893036 114.20166367292404
leaf_count=5359 28992 8343 1042 3677 2208 5705 607 3127 422 1317 2074 23763 1460 12879 989 1172 4135 662 1184 8290 367 4057 422 376 871 257 468 3201 250 458
internal_value=0.102156 0.0743271 0.114095 0.0661528 0.115541 0.040918 0.0980625 0.0280401 0.0721791 0.0225725 0.0727899 0.0147103 0.0543964 0.1834 0.135286 0.00782371 0.0408987 0.0147554 0.0633953 0.187891 0.138678 0.180678 0.126574 0.0127297 0.0563117 0.00628589 0.0654124 0.181574 0.123605 0.00603936
internal_weight=31950 24720.9 4214.99 20505.9 6934.38 13571.5 2495.98 11075.6 2569.04 2925.86 845.541 8506.53 1257.96 4008.53 797.168 7248.56 1323.29 1796.56 460.298 2418.43 351.332 1268.19 256.58 1227.79 310.938 1603.31 180.778 965.727 167.562 893.915
internal_count=128134 99142 16904 82238 27810 54428 10010 44418 10303 11734 3391 34115 5045 16076 3197 29070 5307 7205 1846 9699 1409 5086 1029 4924 1247 6430 725 3873 672 3585
is_linear=0
shrinkage=1


Tree=1
num_leaves=31
num_cat=0
split_feature=0 9 9 9 9 9 9 9 9 9 9 9 9 2 0 9 9 6 0 5 9 5 3 5 3 2 6 3 5 4
split_gain=30723.4 2712.06 550.994 387.785 185.353 86.3239 71.9102 55.1528 34.9013 28.5998 13.2847 12.7718 12.5382 10.9831 13.3085 9.82836 9.77642 8.96445 8.57741 8.31623 9.35813 8.02788 8.01063 7.41153 7.3536 6.75806 6.65038 6.56719 5.99535 6.79334
threshold=90.500000000000014 1.6074751303534678 1.9153752094881749 1.7260633895169231 1.5607641183656364 1.8620660823674078 1.9660986775608997 1.6427537288444809 1.7776260442428105 1.521330177232846 1.5976267396867079 1.9387975772806849 1.887952335579123 36.500868647636587 68.500000000000014 1.6800992168321029 1.9821533889531391 24.500000000000004 61.500000000000007 81.500000000000014 1.9941692163235587 85.500000000000014 99.350461882541723 72.500000000000014 95.928947662587774 36.093144289254489 41.500000000000007 99.841420371382696 76.500000000000014 130.50000000000003
decision_type=2 2 2 2 2 2 2 2 2 2 2 2 2 2 2 2 2 2 2 2 2 2 2 2 2 2 2 2 2 2
left_child=1 4 3 7 9 8 11 -3 -5 -1 22 21 -7 14 -12 -9 18 -18 -8 -19 -21 -4 -6 -16 -15 -23 -20 -17 -29 -30
right_child=-2 2 6 5 10 12 16 15 -10 -11 13 -13 -14 24 23 27 17 19 26 20 -22 25 -24 -25 -26 -27 -28 28 29 -31
leaf_value=0.019869953016971129 0.091045097449307166 -0.021955903616402803 -0.02613744781832715 -0.044208087809620961 -0.0022498830284857123 -0.041785205583145454 0.0044235656204560519 -0.029880279184265529 -0.051639549773661211 0.0096911519655783485 -0.024175181149719262 -0.021056001540313424 -0.034884429941889582 -0.034870107446760085 -0.027304075694215297 -0.035290108249936475 -0.022385630169172253 -0.0097210301056508928 -0.0095178551133486833 0.0071279774442283344 -0.01119219738741699 -0.072738411952435314 -0.011956969914583934 0.011783146144606437 -0.014782337394770334 -0.034532726112436761 -0.019808601222253305 0.0032374522359599881 -0.041611384080319655 0.0041634196786598911
leaf_weight=1074.3045805841684 7177.9043569564819 1739.3161455392838 932.83430764079094 2538.4481680691242 1592.0196259468794 1269.4647057056427 52.746179342269897 1835.9237757474184 4214.0821269899607 1930.5351601094007 48.558168411254883 1357.9796459674835 1380.1351077854633 55.062439545989037 13.700405091047285 2170.0319203287363 88.460602760314941 479.91884842514992 233.04194168746471 201.81725142896175 106.35761462152004 12.229614317417143 245.19429372251034 100.18026657402515 264.34716027975082 216.76950944960117 483.00743871927261 20.648235112428665 30.915714859962463 10.94975435733795
leaf_count=4320 28992 6984 3745 10179 6398 5093 212 7370 16895 7763 195 5453 5538 221 55 8706 355 1927 936 811 427 49 985 403 1062 870 1939 83 124 44
internal_value=-9.86065e-06 -0.0264721 -0.0351571 -0.0395696 0.00513509 -0.0458445 -0.0190437 -0.0294105 -0.0488466 0.0133309 -0.00548441 -0.0243525 -0.0381922 -0.0128731 -0.00228567 -0.0325968 -0.0109125 -0.00730162 -0.015028 -0.00560587 0.000803721 -0.0282034 -0.00354597 0.00706093 -0.0182551 -0.0366039 -0.0164612 -0.0348294 -0.0188047 -0.0296578
internal_weight=31876.9 24699 19375.1 15209.9 5323.9 9402.13 4165.16 5807.79 6752.53 3004.84 2319.06 2519.81 2649.6 481.848 162.439 4068.47 1645.35 876.554 768.796 788.094 308.175 1161.83 1837.21 113.881 319.41 228.999 716.049 2232.55 62.5137 41.8655
internal_count=128134 99142 77740 61016 21402 37705 16724 23311 27074 12083 9319 10117 10631 1936 653 16327 6607 3520 3087 3165 1238 4664 7383 458 1283 919 2875 8957 251 168
is_linear=0
shrinkage=0.05


Tree=2
num_leaves=31
num_cat=0
split_feature=0 8 9 9 8 8 9 8 9 8 9 8 9 8 9 9 8 9 8 9 8 9 8 9 8 9 8 9 8 9
split_gain=27973.9 2900.97 11336.6 8818.39 16468.9 4008.72 6038.36 1975.26 6716.47 1266.26 2345.8 786.473 1851.22 632.895 2768.86 549.506 932.51 422.889 1461.53 359.149 703.577 330.546 588.393 317.184 530.946 300.695 541.977 282.778 541.723 179.234
threshold=90.500000000000014 58.420164396983729 1.7159527493037103 1.6780926156111737 76.730620780489019 66.104166652342798 1.8321987610474275 91.146767387341185 1.787407283802529 70.830414236307732 1.5664668196145459 81.923499652622212 1.6250566911444817 70.429834392824446 1.9153752094881749 1.660110343267893 52.929571982186125 1.7140194453855093 85.883192973608132 1.7579009508898356 56.034149164053296 1.8660216519503128 62.742812064969847 1.7655946091938501 94.735419288872151 1.8150804056001835 96.711286280115146 1.8012333835323575 61.550252271454987 1.581901154116925
decision_type=2 2 2 2 2 2 2 2 2 2 2 2 2 2 2 2 2 2 2 2 2 2 2 2 2 2 2 2 2 2
left_child=1 2 15 4 9 6 27 13 23 -3 -11 12 -6 14 -7 -1 -17 18 -15 20 -4 22 -8 -9 -25 26 -10 -5 -29 -12
right_child=-2 3 19 5 11 7 21 8 25 10 29 -13 -14 17 -16 16 -18 -19 -20 -21 -22 -23 -24 24 -26 -27 -28 28 -30 -31
leaf_value=-0.098456272260344632 0.087473137625244002 -0.094671077437839216 0.07891587090654037 -0.094308722052507954 0.083253399636134387 -0.093884529105834474 0.08898932004645814 0.087283919467092907 -0.096399049570415285 0.071879825613741996 -0.020249620927685685 0.089559721711206519 -0.073446665300410233 -0.095001554876666519 0.066769247744580068 0.060156818984486264 -0.088213864938412948 -0.094130325631874706 0.069799284892362701 0.091542562191841217 -0.082141700159609976 0.089303536770394612 -0.064856595878911932 -0.08369407793318287 0.085423768567087041 -0.09766729248734661 0.057204116062762073 0.058840978791541432 -0.094404948239148245 -0.095431620753572921
leaf_weight=1339.6360671073198 7099.3874559402466 2198.8068178743124 259.20313973724842 917.5035492181778 633.66976714134216 1046.4520402699709 150.98028047382832 769.08569341897964 151.0681729465723 376.64065732061863 92.40288744866848 3180.9625890105963 268.16448746621609 531.26275864243507 360.53537453711033 164.79348404705524 295.94903217256069 5829.1678503155708 180.06170240044594 2059.1842423379421 91.730595663189888 1007.0311263650656 105.48989048600197 79.205310896039009 111.79192276299 1616.76837053895 92.524871453642845 95.756682321429253 144.6850673854351 560.50887578725815
leaf_count=5359 28992 8796 1042 3672 2557 4188 607 3093 605 1520 370 12837 1074 2126 1450 662 1184 23328 724 8290 367 4057 422 317 449 6469 371 384 579 2243
internal_value=-3.68369e-06 -0.0251357 0.0126658 -0.0328996 0.0111458 -0.0573148 0.00081376 -0.0703864 -0.0344369 -0.0732442 -0.0274781 0.077875 0.036655 -0.0831438 -0.0527158 -0.0822568 -0.0351447 -0.0896885 -0.0532806 0.0835743 0.0368056 0.0763981 0.0257097 0.0729636 0.0152846 -0.0898643 -0.0380558 -0.0816601 -0.0333752 -0.0847963
internal_weight=31810.4 24711 4210.5 20500.5 7311.16 13189.4 2421.45 10767.9 2820.44 3228.36 1029.55 4082.8 901.834 7947.48 1406.99 1800.38 460.743 6540.49 711.324 2410.12 350.934 1263.5 256.47 960.083 190.997 1860.36 243.593 1157.95 240.442 652.912
internal_count=128134 99142 16904 82238 29397 52841 9721 43120 11304 12929 4133 16468 3631 31816 5638 7205 1846 26178 2850 9699 1409 5086 1029 3859 766 7445 976 4635 963 2613
is_linear=0
shrinkage=0.05


Tree=3
num_leaves=31
num_cat=0
split_feature=8 8 8 8 8 8 8 8 8 8 8 8 8 8 8 3 8 8 5 4 3 6 8 3 5 2 6 5 4 3
split_gain=2046.06 3421.8 524.135 379.864 265.304 168.118 85.9502 70.0404 48.5583 41.4711 27.4085 24.7778 15.8675 11.4939 10.9003 10.2016 10.1181 12.1267 8.239 8.55709 7.87031 9.22462 7.50734 10.3919 7.27701 6.75637 7.74862 6.92244 14.1696 6.70483
threshold=88.38845857825919 59.586857879483937 80.561970885339747 65.908485266657934 54.292470041052511 94.735419288872151 77.140443794949306 85.29999034726319 62.338466983793772 57.011166815449421 51.9611819888272 91.757025178948979 97.892594983907273 83.098703578250934 60.782403800565739 95.019766061756641 68.644910956333533 74.749802982894764 87.500000000000014 111.50000000000001 96.362347822521258 34.500000000000007 79.156388897858037 95.155227365958368 73.500000000000014 36.423530771146126 26.500000000000004 70.500000000000014 127.50000000000001 96.556219739639587
decision_type=2 2 2 2 2 2 2 2 2 2 2 2 2 2 2 2 2 2 2 2 2 2 2 2 2 2 2 2 2 2
left_child=1 4 3 8 10 11 15 13 14 20 -1 -2 -7 -4 -3 -5 25 -18 -9 -20 21 -6 23 -8 -11 26 -17 28 -27 -22
right_child=5 2 7 6 9 12 22 18 -10 24 -12 -13 -14 -15 -16 16 17 -19 19 -21 29 -23 -24 -25 -26 27 -28 -29 -30 -31
leaf_value=0.042450539495991098 0.012478173703072654 0.00067447774800999958 -0.011754742946921344 -0.0017606089287262854 0.014396021638028318 0.028567791698595454 0.0027036092900325388 0.002111900379433691 -0.015053385699120162 0.0036085838263959337 0.032388917740848171 0.020379716304460654 0.035587476213816575 -0.005518880045614182 -0.0073453463620015945 -0.040169321166422384 -0.034040671605380428 -0.028705069528589169 0.050361269647040734 0.0099046900097598586 0.003782386421619851 0.030565693827887121 -0.016287184096039985 -0.023177976955264266 0.011939644841407989 0.0049714617943294251 -0.020678943317193908 -0.030940279273779105 -0.042634229944724121 0.02012331796662168
leaf_weight=1237.4272031784058 2099.3073319196701 740.93509946763515 1618.411973297596 29.026808276772499 115.81278283894062 1987.4512914121151 40.0506352186203 1783.1214040219784 2248.8004700243473 327.99103645980358 1500.3978791683912 1882.5925451219082 1358.6440043002367 1360.3560813963413 989.38851130008698 58.146861791610718 3830.8727966248989 1481.9616032242775 13.931466713547705 192.8252824395895 66.358306139707565 373.70544955134392 868.72655196487904 1207.5635934025049 1307.1355859488249 38.900321662425995 418.67176005244255 1189.0640454441309 26.010031268000603 1178.8768253326416
leaf_count=5029 8534 3005 6569 118 470 8085 163 7244 9117 1330 6098 7656 5527 5524 4011 235 15505 6003 57 784 269 1519 3522 4896 5307 158 1696 4810 105 4788
internal_value=5.55968e-06 -0.00699225 -0.0178928 -0.023114 0.0253767 0.0231574 -0.0287023 -0.00405533 -0.0102085 0.015983 0.0369379 0.0162143 0.031419 -0.0089072 -0.00391137 -0.0313477 -0.0314696 -0.0325529 0.00320782 0.0126537 0.0213681 0.0267439 -0.0198604 -0.022347 0.0102688 -0.0281426 -0.0230637 -0.0300719 -0.0141407 0.0192529
internal_weight=31572.5 24244.5 18136.8 13168.1 6107.71 7328 9189 4968.65 3979.12 3369.88 2737.83 3981.9 3346.1 2978.77 1730.32 7072.65 7043.63 5312.83 1989.88 206.757 1734.75 489.518 2116.34 1247.61 1635.13 1730.79 476.819 1253.97 64.9104 1245.24
internal_count=128134 98332 73522 53344 24810 29802 37211 20178 16133 13683 11127 16190 13612 12093 7016 28630 28512 21508 8085 841 7046 1989 8581 5059 6637 7004 1931 5073 263 5057
is_linear=0
shrinkage=0.05


Tree=4
num_leaves=31
num_cat=0
split_feature=0 9 9 9 9 9 9 9 9 9 9 9 5 2 0 9 6 9 3 2 5 2 9 9 2 6 2 2 2 2
split_gain=25577.4 2235.29 464.916 258.093 159.244 155.884 45.7985 31.0958 26.0341 16.9434 28.1957 10.9688 9.72745 8.71229 10.8739 8.6312 6.83064 6.80536 6.66482 6.21759 6.02839 5.82517 6.46637 5.5644 11.535 7.28117 5.43804 5.10602 6.77699 7.40702
threshold=90.500000000000014 1.6074751303534678 1.9387975772806849 1.7260633895169231 1.887952335579123 1.5607641183656364 1.6427537288444809 1.9763178032177602 1.521330177232846 1.8620660823674078 1.7776260442428105 1.5976267396867079 83.500000000000014 36.500868647636587 68.500000000000014 1.9072846620599149 21.500000000000004 1.6862072805748105 99.350461882541723 36.524421897283695 72.500000000000014 36.185508679372788 1.9249612536994478 1.9941692163235587 36.099043882457707 38.500000000000007 36.381873437350833 36.191509627019862 36.233161148447344 36.238998148778059
decision_type=2 2 2 2 2 2 2 2 2 2 2 2 2 2 2 2 2 2 2 2 2 2 2 2 2 2 2 2 2 2
left_child=1 5 3 6 9 8 -3 27 -1 10 -5 18 -9 14 -13 -6 -14 -8 -7 -15 -16 22 -17 -18 -25 -26 -22 -4 -29 -30
right_child=-2 2 7 4 15 11 17 12 -10 -11 -12 13 16 19 20 21 23 -19 -20 -21 26 -23 -24 24 25 -27 -28 28 29 -31
leaf_value=0.018586492313590646 0.084339474953906327 -0.019953334055498737 -0.024629844404505257 -0.04021128910679489 -0.032653054355310643 -0.0020396001344375062 -0.02771984455490463 -0.010343906231112842 0.0088370250531038131 -0.038065563639442974 -0.046911011082122561 -0.022089923175304116 -0.026643839341294918 -0.059957632890712591 -0.024841675983984887 -0.043272537871784013 0.005586273306950126 -0.031836845713777824 -0.010920323431216067 -0.015399606130196459 0.0039226493142992241 -0.025482963912005299 -0.024891224638941709 -0.077257384418098624 0.023163545918676268 -0.012779692096789381 0.03127777608317877 0.0021855213936743988 -0.063154008471456857 -0.017124398420298715
leaf_weight=1065.6949035972357 6996.7451579272747 1729.6158996224403 242.1914499849081 2523.067785859108 984.74525947868824 1581.7070440500975 2122.8549140542746 819.78640452027321 1916.2857503592968 1262.2589328289032 4189.6385493129492 48.305945262312889 22.827436551451683 7.9466006606817237 13.62412393093109 103.9650202691555 233.44494113326073 1922.6700397580862 243.75103169679642 309.60639871656895 75.478335827589035 1350.170318365097 89.700347423553467 5.731092855334281 18.310397982597351 59.965386852622032 23.84285831451416 45.504582300782204 8.7045694142580015 1530.8807492256165
leaf_count=4320 28992 6984 977 10179 3973 6398 8569 3309 7763 5093 16895 195 92 32 55 419 944 7758 985 1251 306 5448 362 23 74 242 97 184 35 6180
internal_value=6.02204e-06 -0.024027 -0.0319295 -0.0352569 -0.0399254 0.00477432 -0.0267654 -0.0137977 0.0123218 -0.0433924 -0.0443935 -0.00499308 -0.00739439 -0.0117282 -0.00226132 -0.0289896 -0.000287594 -0.0296772 -0.00322596 -0.0165332 0.00623127 -0.0266509 -0.0347761 0.00161543 -0.00941257 -0.00435297 0.0105143 -0.0178622 -0.0168267 -0.0173887
internal_weight=31549 24552.3 19266 16278.7 10503.5 5286.24 5775.14 2987.35 2981.98 7974.97 6712.71 2304.26 1160.07 478.804 161.251 2528.58 340.279 4045.52 1825.46 317.553 112.945 1543.84 193.665 317.452 84.0069 78.2758 99.3212 1827.28 1585.09 1539.59
internal_count=128134 99142 77740 65680 42369 21402 23311 12060 12083 32167 27074 9319 4684 1936 653 10202 1375 16327 7383 1283 458 6229 781 1283 339 316 403 7376 6399 6215
is_linear=0
shrinkage=0.05


Tree=5
num_leaves=31
num_cat=0
split_feature=0 8 9 9 8 8 9 9 8 8 9 8 9 8 9 9 8 9 8 9 8 8 9 9 8 8 9 8 9 9
split_gain=23400 2445.68 9935.92 7111.75 14674 3820.64 6246.14 2280.68 6561.44 1111.08 1885.06 835.717 1974.72 734.903 1639.5 428.194 667.975 383.181 775.559 316.091 756.916 315.133 681.762 301.523 527.678 298.38 554.888 237.3 1293.59 130.174
threshold=90.500000000000014 57.812270575960504 1.7019002562210714 1.6701178579801814 74.958451726644725 66.874950354842085 1.8321987610474275 1.7675525813223112 88.38845857825919 80.35792257263509 1.6074751303534678 71.632204928144958 1.9367818189488952 70.026164025273275 1.550782470665006 1.7498664353438513 55.260931186964989 1.8738457646405284 63.54581065825932 1.7853825939411021 60.404017951438327 91.757025178948979 1.734058652281194 1.6701178579801814 52.742520725899034 85.684959760611065 1.7059360631983893 95.907042334120916 1.8131375286616589 1.9560060575638916
decision_type=2 2 2 2 2 2 2 2 2 2 2 2 2 2 2 2 2 2 2 2 2 2 2 2 2 2 2 2 2 2
left_child=1 2 23 4 13 6 19 8 25 10 -6 12 -9 -3 -15 16 -4 18 -8 -5 -21 22 -10 -1 -25 -7 -27 -13 -29 -14
right_child=-2 3 15 5 9 7 17 11 21 -11 -12 27 29 14 -16 -17 -18 -19 -20 20 -22 -23 -24 24 -26 26 -28 28 -30 -31
leaf_value=-0.093182157864905038 0.08156614235464954 -0.091503225085710974 0.076310297518194181 -0.089969707821878173 0.07957454075087933 -0.089466740344025228 0.081092218672389291 -0.081186068460891797 0.079940078247313195 0.08486583201397023 -0.070396867356216572 -0.090347853139011669 0.019774881827097007 0.071495747016827343 -0.082144064765655278 0.088253052767722218 -0.066556123451384619 0.086099713540140232 -0.071521674443354721 0.068357266708525405 -0.080267902754120268 0.08583818455667877 -0.075422847612576005 0.068810338042297137 -0.086375490192413862 0.06794283765793617 -0.086471549308119566 0.059316717543623027 -0.091186494417258415 0.089785066120196433
leaf_weight=1327.1180809438229 6870.2219464331865 2058.0297061651945 250.86268027126789 1005.7282048612833 542.44275680184364 1775.5227255374193 234.94731095433235 788.03086563944817 205.50689567625523 3261.0762345939875 341.27248521149158 5511.7024684399366 96.651780173182487 249.10631738603115 572.57478030025959 1959.8490677326918 121.3004906475544 1123.4331144094467 128.80604560673237 119.10955901443958 304.41647052764893 794.32563883066177 107.45382052659988 83.907814383506775 157.36890982091427 90.295810773968697 163.17831435799599 175.34312023222446 767.12062799930573 212.47887343168259
leaf_count=5320 28966 8264 1014 4056 2202 7167 948 3185 830 13312 1372 22212 389 1009 2305 7960 488 4552 519 479 1229 3218 432 339 632 364 657 706 3081 856
internal_value=7.57055e-06 -0.0228361 0.0134723 -0.0297012 0.0111541 -0.050797 -7.24549e-05 -0.0646386 -0.0287975 0.0713899 0.0216573 -0.0795238 -0.0391753 -0.0755432 -0.0355626 0.0789167 0.02974 0.0716586 0.0270464 -0.0747108 -0.0384633 0.0690963 0.0265898 -0.0838344 -0.032401 -0.082222 -0.031459 -0.0863821 -0.0631824 0.0679094
internal_weight=31399.2 24529 3900.41 20628.6 7024.5 13604.1 2916.44 10687.6 3136.28 4144.79 883.715 7551.33 1097.16 2879.71 821.681 2332.01 372.163 1487.19 363.753 1429.25 423.526 1107.29 312.961 1568.39 241.277 2029 253.474 6454.17 942.464 309.131
internal_count=128063 99097 15753 83344 28464 54880 11783 43097 12668 16886 3574 30429 4430 11578 3314 9462 1502 6019 1467 5764 1708 4480 1262 6291 971 8188 1021 25999 3787 1245
is_linear=0
shrinkage=0.05


Tree=6
num_leaves=31
num_cat=0
split_feature=0 8 9 9 8 8 9 9 8 8 9 8 9 8 9 9 8 9 8 8 9 8 9 9 8 8 9 9 8 9
split_gain=21514.6 2231.43 9597.2 6968.3 12988 3047.12 5544.94 2074.47 5983.87 1031.25 1641.68 764.16 1798.68 655.701 1489.92 522.451 742.592 356.241 675.757 289.66 619.831 276.88 516.099 253.883 505.429 219.646 1183.63 217.482 563.398 133.062
threshold=90.500000000000014 58.420164396983729 1.7019002562210714 1.6701178579801814 74.958451726644725 66.874950354842085 1.8441011709858588 1.7675525813223112 88.38845857825919 79.356763100210017 1.6035079625766866 71.632204928144958 1.9348746957327889 70.026164025273275 1.550782470665006 1.7519535784070619 55.647677016068776 1.7972769557406381 61.734728788619528 91.757025178948979 1.734058652281194 84.902040296510009 1.7059360631983893 1.6701178579801814 52.929571982186125 95.718768279637558 1.8131375286616589 1.8859596744600278 64.126954813723913 1.9560060575638916
decision_type=2 2 2 2 2 2 2 2 2 2 2 2 2 2 2 2 2 2 2 2 2 2 2 2 2 2 2 2 2 2
left_child=1 2 23 4 13 6 17 8 21 10 -6 12 -9 -3 -15 16 -4 -5 -19 20 -10 -7 -23 -1 -25 -13 -27 28 -8 -14
right_child=-2 3 15 5 9 7 27 11 19 -11 -12 25 29 14 -16 -17 -18 18 -20 -21 -22 22 -24 24 -26 26 -28 -29 -30 -31
leaf_value=-0.089194604574109729 0.079094177678070449 -0.087416245752270139 0.068906464749482241 -0.085649810375846375 0.077437339863652879 -0.087027371746625046 0.081713974572530504 -0.078570014685361261 0.076566809718158046 0.080208396577611668 -0.076761212954224584 -0.086787575884491291 0.016929921671388723 0.068475258277064063 -0.078529131009912212 0.084377949516495493 -0.075064822365453573 0.056541818922550162 -0.080644571764574624 0.082474219100192148 -0.072008379003705672 0.047622638897223207 -0.084012488333995244 0.059946413702213652 -0.086600611041414796 0.053221448339598826 -0.087441577147610833 0.085418876559443885 -0.056712462796007501 0.085935256077239702
leaf_weight=1417.1183675825596 6734.1252761036158 1945.062105730176 278.24275696277618 1039.6994698047638 419.63229449093342 1686.4990368038416 237.59823209047318 773.13417801260948 203.87699294090271 3381.1947341561317 293.08048859238625 5413.7173023074865 104.51574739813805 247.14286403357983 569.07351763546467 2061.2275616079569 131.96421481668949 143.50271233916283 239.36660002171993 785.60739740729332 106.93851153552532 116.52316524088383 205.92297330498695 90.466195002198219 167.88400650024414 184.00706918537617 797.28755076229572 937.06378567218781 106.32787142693996 210.93892082571983
leaf_count=5714 28966 7870 1133 4235 1720 6880 967 3153 830 13982 1184 22028 421 1009 2305 8475 533 580 975 3218 432 472 836 368 679 744 3227 3840 431 856
internal_value=1.44549e-05 -0.0219056 0.0114951 -0.0287803 0.0121659 -0.0498969 -0.00251947 -0.0619931 -0.0276364 0.0686873 0.0140262 -0.076249 -0.0375187 -0.0716329 -0.0340146 0.0741227 0.0225837 -0.0704667 -0.0292246 0.0663103 0.0254416 -0.0789106 -0.0364432 -0.080884 -0.0352811 -0.0828412 -0.0610625 0.0729371 0.0389141 0.0630852
internal_weight=31028.7 24294.6 4146.9 20147.7 6855.19 13292.5 2703.56 10589 3105.37 4093.91 712.713 7483.6 1088.59 2761.28 816.216 2471.43 410.207 1422.57 382.869 1096.42 310.816 2008.95 322.446 1675.47 258.35 6395.01 981.295 1280.99 343.926 315.455
internal_count=128063 99097 16902 82195 28070 54125 11028 43097 12668 16886 2904 30429 4430 11184 3314 10141 1666 5790 1555 4480 1262 8188 1308 6761 1047 25999 3971 5238 1398 1277
is_linear=0
shrinkage=0.05


Tree=7
num_leaves=31
num_cat=0
split_feature=0 9 9 9 9 9 9 9 9 9 9 9 9 9 3 2 5 2 9 2 2 3 6 6 3 2 6 3 9 3
split_gain=19833.8 1655.04 337.656 204.203 122.365 76.8345 31.9617 30.4327 26.0709 24.6157 17.3408 11.2418 10.8487 9.76792 8.36894 8.21695 7.49338 6.92888 6.17647 6.10329 7.39605 6.62617 6.49915 5.47398 5.72217 5.7082 5.32464 5.19078 5.17555 6.34064
threshold=90.500000000000014 1.6074751303534678 1.9328584027693705 1.7059360631983893 1.5607641183656364 1.8859596744600278 1.7440707931352075 1.9660986775608997 1.521330177232846 1.6309482847296513 1.8600988304662389 1.7776260442428105 1.587503430404573 1.9112585923952898 97.484203847364213 36.577453486545288 73.500000000000014 36.924333821994573 1.6681419497455832 36.351187114811474 36.452500508222847 98.899864170774109 85.500000000000014 23.500000000000004 97.720582735632235 37.357293789931781 33.500000000000007 99.883668781254869 1.9783144858553177 95.53187551931849
decision_type=2 2 2 2 2 2 2 2 2 2 2 2 2 2 2 2 2 2 2 2 2 2 2 2 2 2 2 2 2 2
left_child=1 4 3 9 8 6 -5 -4 16 -3 11 -8 14 -7 -6 18 -1 -15 -11 22 21 -21 -18 -9 25 -25 -20 -14 -27 -30
right_child=-2 2 7 5 12 13 10 23 -10 15 -12 -13 27 17 -16 -17 19 -19 26 20 -22 -23 -24 24 -26 28 -28 -29 29 -31
leaf_value=0.0087470134627732309 0.076882123426249283 -0.015912968242619892 -0.018062185265039537 -0.030946674429534728 0.0022018998831164756 -0.029616012691645856 -0.036130901200466019 -0.018114054436871901 0.0073536993223515734 -0.017955638318927488 -0.03309634988325158 -0.041096709434214139 -0.0093909726042977724 -0.026342333061541226 -0.0058351922496439204 -0.026229370472662945 0.029340946896001453 -0.018029175143662833 -0.032717226294348825 0.0095685758496574774 0.018700277690808193 -0.030184068861142971 -0.012119628367825867 -0.005945516240265015 -0.010771006590697439 -0.0080450937099766848 -0.022257935551517376 0.016934875013093275 0.059943695160905787 0.010524225256024977
leaf_weight=206.83255538344383 6585.2496215701103 1142.0816621184349 1617.44728051126 1781.58166924119 655.70612743496895 1242.282742023468 1611.8023977279663 131.95202535390854 1877.6256864517927 689.83264301717281 1231.7061068415642 3965.830724209547 909.23138570785522 635.99837605655193 639.91120964288712 2217.4528226405382 182.48562608659267 415.64765526354313 158.19800148904324 41.711799249053001 573.2880498021841 13.890120148658751 9.9159310609102231 706.49675838649273 700.12622261047363 29.063830867409706 536.48611961305141 19.029858961701393 7.7073690742254248 38.893632233142853
leaf_count=858 28966 4709 6668 7352 2712 5130 6657 544 7783 2846 5088 16392 3759 2622 2643 9143 760 1714 652 173 2383 57 41 2917 2889 120 2213 79 32 161
internal_value=1.98553e-05 -0.0210789 -0.0279278 -0.0309699 0.0041032 -0.0347432 -0.0369143 -0.013215 0.0108589 -0.0223119 -0.0384752 -0.0396624 -0.00472402 -0.026611 -0.0017678 -0.0243403 0.0172591 -0.0230587 -0.0213132 0.0194014 0.0170119 -0.000398539 0.027199 -0.00835727 -0.00748756 -0.00454749 -0.0246442 -0.00884951 0.00849675 0.0188086
internal_weight=30575.5 23990.2 18860.6 15628.9 5129.63 10884.8 8590.92 3231.69 2905.75 4744.05 6809.34 5577.63 2223.88 2293.93 1295.62 3601.97 1028.12 1051.65 1384.52 821.292 628.89 55.6019 192.402 1614.24 1482.29 782.162 694.684 928.261 75.6648 46.601
internal_count=128063 99097 77849 64518 21248 44955 35489 13331 12055 19563 28137 23049 9193 9466 5355 14854 4272 4336 5711 3414 2613 230 801 6663 6119 3230 2865 3838 313 193
is_linear=0
shrinkage=0.05


Tree=8
num_leaves=31
num_cat=0
split_feature=0 8 9 9 8 8 9 9 8 8 9 8 9 8 9 9 8 9 8 8 9 8 9 9 8 9 8 8 9 9
split_gain=18272.3 2050.6 8377.68 5701.8 12250.5 3201.01 4927.65 1734.17 5574.88 963.259 1894.15 960.671 1599.13 612.905 1353.03 363.406 568.943 308.129 603.263 265.472 600.505 261.757 470.577 261.528 504.865 221.773 477.261 204.848 1103.88 160.009
threshold=90.500000000000014 57.812270575960504 1.7019002562210714 1.6701178579801814 74.958451726644725 66.104166652342798 1.8321987610474275 1.7675525813223112 88.38845857825919 71.427808654231441 1.9249612536994478 80.759440694173563 1.6074751303534678 70.026164025273275 1.5607641183656364 1.7498664353438513 54.884476266115463 1.7893551953237019 60.782403800565739 92.370558814251524 1.7360724871892794 84.902040296510009 1.7059360631983893 1.6582893538846648 51.9611819888272 1.8620660823674078 62.945384961330269 95.907042334120916 1.8169762398641729 1.950407722144966
decision_type=2 2 2 2 2 2 2 2 2 2 2 2 2 2 2 2 2 2 2 2 2 2 2 2 2 2 2 2 2 2
left_child=1 2 23 4 13 6 17 8 21 10 -9 12 -6 -3 -15 16 -4 -5 -19 20 -10 -7 -23 -1 -25 26 -8 -11 -29 -12
right_child=-2 3 15 5 11 7 25 9 19 27 29 -13 -14 14 -16 -17 -18 18 -20 -21 -22 22 -24 24 -26 -27 -28 28 -30 -31
leaf_value=-0.087226343989639479 0.074893225904631988 -0.084004584419893377 0.077396762121041282 -0.081153995874619786 0.074150643469094862 -0.082850193689678747 0.082336517782964844 -0.073820000029023544 0.074689258554442986 -0.08221012348551944 0.016192975484447664 0.079853513567635093 -0.060180544271020611 0.054099495940625811 -0.080861672131339241 0.083040180813551426 -0.050780204292186021 0.063760520309514374 -0.075007146499024235 0.082653657088113508 -0.062147196011390328 0.046609398805369143 -0.07953538514111512 0.071170361396148532 -0.072407850256456893 0.081057612803679457 -0.064238213891309598 0.050011987227746107 -0.084700065750677012 0.08223775041872948
leaf_weight=1213.8795574754477 6426.1524139344692 2018.1054062843323 227.9671995639801 928.55461345613003 570.26586838066578 1719.9358931183815 148.89644187688828 810.94985055923462 247.32718688249588 5406.185627296567 141.76752457022667 3102.65202870965 362.17250135540962 289.52347849309444 517.53081881999969 1916.148090004921 139.4587070196867 121.54975157976151 219.80948616564274 721.31170053780079 118.52465803921223 116.32777477800846 202.50779289007187 81.22093577682972 247.78526137769222 1090.7995911836624 88.446736544370651 191.8724365234375 731.96385282278061 259.91645166277885
leaf_count=4945 28966 8264 934 3851 2373 7156 608 3370 1015 22401 572 13040 1473 1191 2123 7960 568 492 911 2981 484 472 836 331 1015 4518 361 778 3009 1065
internal_value=2.79462e-05 -0.020057 0.0134947 -0.0264357 0.0105724 -0.0455728 0.00419648 -0.0576927 -0.0263778 -0.0706701 -0.0298427 0.0664794 0.0219736 -0.0692774 -0.0324449 0.0743059 0.0287458 -0.0662216 -0.0255911 0.0650581 0.0303536 -0.0751363 -0.033511 -0.0765089 -0.0369522 0.0715272 0.0277109 -0.0784908 -0.0567192 0.0589382
internal_weight=30379.5 23953.4 3826.46 20126.9 6860.25 13266.6 2598.06 10668.6 3125.94 7542.66 1212.63 4035.09 932.438 2825.16 807.054 2283.57 367.426 1269.91 341.359 1087.16 365.852 2038.77 318.836 1542.89 329.006 1328.14 237.343 6330.02 923.836 401.684
internal_count=128063 99097 15753 83344 28464 54880 10741 44139 12944 31195 5007 16886 3846 11578 3314 9462 1502 5254 1403 4480 1499 8464 1308 6291 1346 5487 969 26188 3787 1637
is_linear=0
shrinkage=0.05


Tree=9
num_leaves=31
num_cat=0
split_feature=0 8 9 9 8 8 9 9 8 8 9 8 9 8 9 9 8 9 8 9 8 8 9 8 9 9 8 9 8 9
split_gain=16913.3 1884.07 8144.16 5648.92 11262.2 2828.51 4789.2 1674.34 4663.16 931.152 1637.66 611.417 1442.77 450.699 1319.68 446.021 627.831 288.142 659.904 280.255 624.342 248.71 439.835 231.487 518.867 226.172 480.145 163.727 897.68 120.221
threshold=90.500000000000014 58.420164396983729 1.7019002562210714 1.6780926156111737 76.730620780489019 67.667700179621292 1.8441011709858588 1.7715941133728175 89.163754738993035 71.427808654231441 1.5782965778190783 82.118283165032722 1.6290047888625951 71.844601644280331 1.9426407236050514 1.7519535784070619 55.647677016068776 1.8917599125706925 64.709735762990178 1.7972769557406381 61.926669320520624 86.062071107894681 1.7159527493037103 92.957523329981115 1.7400078141778639 1.6582893538846648 51.764233479257683 1.8169762398641729 95.907042334120916 1.5607641183656364
decision_type=2 2 2 2 2 2 2 2 2 2 2 2 2 2 2 2 2 2 2 2 2 2 2 2 2 2 2 2 2 2
left_child=1 2 25 4 9 6 19 8 21 -3 29 12 -6 14 -9 16 -4 18 -8 -5 -21 -7 -23 24 -10 -1 -27 28 -15 -11
right_child=-2 3 15 5 11 7 17 13 23 10 -12 -13 -14 27 -16 -17 -18 -19 -20 20 -22 22 -24 -25 -26 26 -28 -29 -30 -31
leaf_value=-0.084055950089197806 0.073097338811316928 -0.077996706804101534 0.065040738152003882 -0.078769328086027768 0.071452751520203625 -0.079721874185253699 0.072214347678739937 -0.074698973008138339 0.074851691537104983 0.073593794013014233 -0.07744853341273672 0.078214075087663412 -0.069272434659487403 -0.078162470661774591 0.062885296602355242 0.079803262013264431 -0.068546264986404454 0.080646549815658067 -0.064656866911740649 0.049799346443168607 -0.077735934904426637 0.049536136894451639 -0.081124104915785492 0.081073079011192817 -0.058426522081129043 0.075794174925887789 -0.068649329876775481 -0.080748073971902645 0.044354317659390699 0.0069884192485783914
leaf_weight=1287.1108466088772 6259.0657841265202 2209.8483732640743 273.99601952731609 1040.5956852436066 632.36305765807629 1592.033205896616 290.79829670488834 668.02180001139641 212.64256016910076 306.12954664230347 501.15150502324104 2972.8107553869486 255.70797692239285 1007.7747855782509 235.71731781959534 2006.1647489666939 129.41854681074619 950.56576351821423 126.20812551677227 153.44196005165577 255.83374811708927 109.20316521823406 156.73860411345959 634.85595141351223 111.10597912967205 72.499128699302673 277.29920098185539 4851.1035430431366 175.48485532402992 87.023999109864235
leaf_count=5315 28966 9182 1133 4396 2673 6741 1206 2812 884 1285 2084 12729 1051 4278 971 8475 533 3998 524 627 1079 448 656 2664 457 298 1148 20381 714 355
internal_value=3.19641e-05 -0.0193597 0.0116932 -0.0257913 0.01033 -0.0458027 -0.00167366 -0.0585483 -0.026035 -0.0605764 -0.0175264 0.0673389 0.0309296 -0.0717468 -0.0388106 0.070157 0.0221786 0.0654457 0.0307843 -0.0649833 -0.0299211 -0.0722451 -0.0274729 0.063528 0.0291086 -0.0743664 -0.0386989 -0.0766788 -0.0599902 0.0588563
internal_weight=29842.7 23583.6 4046.49 19537.2 6965.04 12572.1 2817.44 9754.68 2816.58 3104.15 894.305 3860.88 888.071 6938.1 903.739 2409.58 403.415 1367.57 417.006 1449.87 409.276 1857.97 265.942 958.604 323.749 1636.91 349.798 6034.36 1183.26 393.154
internal_count=128063 99097 16902 82195 29359 52836 11830 41006 11850 12906 3724 16453 3724 29156 3783 10141 1666 5728 1730 6102 1706 7845 1104 4005 1341 6761 1446 25373 4992 1640
is_linear=0
shrinkage=0.05


Tree=10
num_leaves=31
num_cat=0
split_feature=0 8 9 9 8 8 9 9 8 8 9 8 9 8 9 8 9 9 8 8 9 9 8 8 9 9 8 9 8 8
split_gain=15692.3 1750.28 7051.82 5009.45 9669.42 2163.75 4553.64 1980.5 5071.09 636.662 1712.58 547.247 986.353 536.183 1076.38 396.019 1723.79 346.011 549.611 319.378 471.649 294.483 506.178 207.374 465.122 186.83 421.311 182.789 351.293 131.758
threshold=90.500000000000014 57.812270575960504 1.7118745126873964 1.6504382525043206 74.749802982894764 66.104166652342798 1.8321987610474275 1.7440707931352075 86.658515518639589 70.429834392824446 1.9112585923952898 78.758348100353658 1.593435183247087 69.243083989907163 1.5470715746098356 94.542182061533481 1.8012333835323575 1.660110343267893 53.3235424328345 83.912333091322793 1.6881545353105758 1.7853825939411021 60.782403800565739 89.565598138640283 1.7140194453855093 1.8719060767830589 63.346291168832472 1.7459824109786997 55.451121826140202 69.053185933860433
decision_type=2 2 2 2 2 2 2 2 2 2 2 2 2 2 2 2 2 2 2 2 2 2 2 2 2 2 2 2 2 2
left_child=1 2 17 4 13 6 21 8 19 10 -9 12 -6 -3 -15 -11 -17 -1 -19 -7 -21 -5 -23 24 -10 26 -8 28 -4 -12
right_child=-2 3 27 5 11 7 25 9 23 15 29 -13 -14 14 -16 16 -18 18 -20 20 -22 22 -24 -25 -26 -27 -28 -29 -30 -31
leaf_value=-0.081012498300048294 0.071469666223350548 -0.079742254838658905 0.070185411687522889 -0.077921909416193078 0.07470654639977746 -0.078186424101823401 0.073085031892548155 -0.074524630022151858 0.072980550615113396 -0.075220839399180062 0.079378962324536895 0.075576266663876901 -0.06225419502877591 0.058842104267197486 -0.068550495789131624 0.064557212588299454 -0.07460351347444176 0.043972719911112089 -0.078534085595517847 0.066255954359529981 -0.074278912082600193 0.052989236917180806 -0.069350837653022399 0.077359808677226194 -0.069388415671853429 0.077759038532185687 -0.052518736972741398 0.077536569645381206 -0.05936714208218305 0.015940475866158314
leaf_weight=1186.8212087899446 6100.6549250781536 1623.0293249040842 178.21562491357327 1009.5986349284649 337.20170909166336 1494.8483870923519 209.10576425492764 689.26148729026318 176.1949474811554 5649.5192841738462 249.98964788019657 2937.3402605950832 215.31183932721615 239.77476443350315 536.99647335708141 283.04692183434963 1039.6191917210817 160.64929741621017 212.61232040822506 100.95450972020626 145.80565412342548 131.416195333004 236.68208388984203 887.70916520059109 84.950878202915192 972.60558812320232 97.970153629779816 1874.1133446991444 73.97043414413929 121.75665539503098
leaf_count=4981 29036 6838 749 4336 1444 6423 876 2971 742 24265 1043 12847 893 1009 2257 1182 4407 664 892 424 617 540 1011 3803 356 4179 405 8078 306 506
internal_value=0.000128043 -0.0186669 0.0129245 -0.0246481 0.0138637 -0.0413494 -0.000885726 -0.0511929 -0.0156999 -0.0639634 -0.0278766 0.0669892 0.021332 -0.0633924 -0.0292243 -0.0694545 -0.0448209 -0.0678075 -0.0258103 -0.0694875 -0.0167797 -0.0639642 -0.0256712 0.0658384 0.026659 0.0670239 0.0330081 0.0721585 0.032177 0.0586111
internal_weight=29257.7 23157.1 3686.38 19470.7 5889.65 13581 2657.38 10923.7 2890.46 8033.19 1061.01 3489.85 552.514 2399.8 776.771 6972.19 1322.67 1560.08 373.262 1741.61 246.76 1377.7 368.098 1148.85 261.146 1279.68 307.076 2126.3 252.186 371.746
internal_count=128080 99044 15670 83374 25288 58086 11347 46739 12365 34374 4520 15184 2337 10104 3266 29854 5589 6537 1556 7464 1041 5887 1551 4901 1098 5460 1281 9133 1055 1549
is_linear=0
shrinkage=0.05


Tree=11
num_leaves=31
num_cat=0
split_feature=8 9 8 9 9 8 8 9 9 8 9 8 9 8 9 8 9 8 9 8 8 9 8 9 9 8 9 8 8 9
split_gain=1208.2 7649.47 2062.55 6168.54 2022.82 3753.88 1112.02 3622.33 658.743 1432.55 302.644 525.694 296.316 528.452 253.902 1036.62 246.622 523.5 245.425 445.13 222.347 470.247 205.479 491.469 188.568 386.037 178.426 372.942 111.459 241.816
threshold=88.38845857825919 1.7757191980370639 59.586857879483937 1.7159527493037103 1.6114093318635274 72.625213448312095 67.667700179621292 1.8502936195121817 1.6780926156111737 81.554897041243308 1.7675525813223112 56.42926409893159 1.734058652281194 92.957523329981115 1.9601027568716163 73.014337697695908 1.6780926156111737 53.3235424328345 1.8169762398641729 96.711286280115146 76.326571520782679 1.5782965778190783 68.84782492285153 1.5353005744416033 1.8917599125706925 65.103499927483355 1.8131375286616589 62.128046918339351 78.967978690963832 1.6387838116837512
decision_type=2 2 2 2 2 2 2 2 2 2 2 2 2 2 2 2 2 2 2 2 2 2 2 2 2 2 2 2 2 2
left_child=2 12 3 16 5 22 7 26 9 28 11 -5 -2 -14 -10 -16 -1 -18 19 -3 21 -7 -4 -24 25 -9 -6 -28 -8 -30
right_child=1 18 4 10 6 20 8 24 14 -11 -12 -13 13 -15 15 -17 17 -19 -20 -21 -22 -23 23 -25 -26 -27 27 -29 29 -31
leaf_value=-0.047120831587909112 0.073633447311357805 -0.039129642550040554 -0.048110375299742297 0.066449075390131604 -0.045830422961442269 0.068115278154616002 -0.045370665121438412 0.068383346022627217 -0.042684742278392633 0.062766434801674487 0.074385692389309768 -0.036609984068863427 -0.025952235947398331 0.07421826099509371 0.073429571066428806 -0.046295386250737917 0.071849573076038731 -0.045549424401389281 -0.046940898370065043 0.058186162627278708 0.073495028334658305 -0.036296969683975888 0.066748182900968081 -0.042832617647931261 0.074845645168438654 -0.040687890672995108 0.066185159901732099 -0.042951137963553127 0.060857749399497896 -0.050982466489729955
leaf_weight=1964.6076182723045 3089.2942643761635 397.31436188519001 1200.4966860413551 396.02622801065445 1872.3262356370687 339.83213150501251 860.54322929680347 250.52834071218967 6629.9936996996403 535.37419445812702 2559.7389491647482 179.87061883509159 221.12045946717262 325.19971239566803 245.18074215948582 687.6193250566721 145.20300440490246 273.95761646330357 2449.9258857965469 166.73742274940014 1525.3764606267214 157.86223712563515 146.96891131997108 336.203872397542 1002.5923321545124 119.86919409036636 116.37195345759392 238.6171922236681 83.561261251568794 114.34974429011345
leaf_count=8663 14106 1777 5275 1753 8403 1496 3815 1095 29817 2382 11546 797 965 1434 1068 3049 632 1207 10952 717 6939 682 635 1465 4480 524 503 1060 354 489
internal_value=0.000128601 0.0188032 -0.00552027 0.0209307 -0.014388 0.018125 -0.0238352 -0.000292712 -0.0330918 -0.00387824 0.0670174 0.0342597 0.0676304 0.0336774 -0.0392484 -0.0148219 -0.0396926 -0.00487336 -0.040095 -0.0103572 0.0640262 0.0349964 -0.0370296 -0.009494 0.0635826 0.0330839 -0.0396686 -0.00716569 -0.0375904 -0.00375481
internal_weight=28632.7 6649.59 21983.1 5519.4 16463.7 3706.74 12756.9 3600.31 9156.62 1593.83 3135.64 575.897 3635.61 546.32 7562.79 932.8 2383.77 419.161 3013.98 564.052 2023.07 497.694 1683.67 483.173 1372.99 370.398 2227.32 354.989 1058.45 197.911
internal_count=128080 29951 98129 24598 73531 16492 57039 16065 40974 7040 14096 2550 16505 2399 33934 4117 10502 1839 13446 2494 9117 2178 7375 2100 6099 1619 9966 1563 4658 843
is_linear=0
shrinkage=0.05


Tree=12
num_leaves=31
num_cat=0
split_feature=0 8 9 9 8 8 9 9 8 8 9 8 9 8 9 8 9 9 8 9 8 8 9 8 9 9 8 9 8 8
split_gain=14641.9 1517.27 6102.96 4326.11 8398.72 1861.71 3949.85 1705.46 4416.85 568.125 1574.97 494.641 877.134 469.994 926.526 371.131 1574.44 307.679 479.32 261.918 445.063 260.592 387.206 203.631 452.255 170.501 373.735 169.194 308.816 132.578
threshold=90.500000000000014 57.812270575960504 1.7118745126873964 1.6504382525043206 74.749802982894764 66.104166652342798 1.8321987610474275 1.7440707931352075 86.462929501138092 71.040847189696407 1.9172428431451498 79.156388897858037 1.5995734269610959 69.619040021965262 1.5470715746098356 93.556278852283015 1.7992240052810218 1.660110343267893 52.929571982186125 1.7893551953237019 60.782403800565739 83.912333091322793 1.6862072805748105 89.747420005792421 1.7140194453855093 1.8719060767830589 63.138494957001662 1.7400078141778639 54.884476266115463 69.053185933860433
decision_type=2 2 2 2 2 2 2 2 2 2 2 2 2 2 2 2 2 2 2 2 2 2 2 2 2 2 2 2 2 2
left_child=1 2 17 4 13 6 19 8 21 10 -9 12 -6 -3 -15 -11 -17 -1 -19 -5 -21 -7 -23 24 -10 26 -8 28 -4 -12
right_child=-2 3 27 5 11 7 25 9 23 15 29 -13 -14 14 -16 16 -18 18 -20 20 -22 22 -24 -25 -26 -27 -28 -29 -30 -31
leaf_value=-0.07708740245436986 0.070058839074085125 -0.075013276282852093 0.072594409733687568 -0.073852114164364699 0.066950359995147202 -0.074873428747914084 0.071471384395731044 -0.069960635863803231 0.069148241493680415 -0.073250223001265005 0.077507917915672075 0.072233133021444004 -0.060534785885885206 0.06089153734855314 -0.064190778949519453 0.054204263786277178 -0.071212547439905044 0.047232243027297949 -0.07018120382007785 0.055678287373481843 -0.065518078371164842 0.064959968953007527 -0.069626067318230012 0.07362576645811883 -0.064556939463388516 0.073636716624672888 -0.045414329906435284 0.072859672577340134 -0.055921468767050446 0.018222410636139576
leaf_weight=1150.0924720913172 5919.3423706442118 1634.2104143351316 124.31928257644176 1003.8559319376945 380.42619514465332 1445.1489863246679 193.72796837985516 780.49197396636009 189.94009432196617 5092.7635179907084 229.25015908479691 2748.7485409528017 208.95117016136646 213.06911362707615 484.5818704366684 316.08248353004456 1200.0092039257288 142.39440983533859 222.80772005021572 117.28304389119148 213.50168204307556 87.755996763706207 136.34250029921532 836.86158932745457 94.699182257056236 930.20560629665852 105.58828707039356 1837.7926291972399 74.783123642206192 160.27975210547447
leaf_count=4981 29036 7105 543 4461 1691 6423 840 3474 823 22641 986 12613 880 918 2081 1354 5251 597 959 489 937 377 592 3744 406 4179 441 8277 313 668
internal_value=0.000135814 -0.0183784 0.0115908 -0.0240399 0.0124606 -0.0397975 -0.00157757 -0.0490694 -0.0155367 -0.0610992 -0.0289814 0.0633209 0.0217506 -0.060347 -0.0259862 -0.0667848 -0.0450632 -0.0643918 -0.0244006 -0.061138 -0.0225429 -0.0670942 -0.0169173 0.0612009 0.0246576 0.0630747 0.0302368 0.0681164 0.0243198 0.0531247
internal_weight=28275.3 22356 3552.19 18803.8 5669.99 13133.8 2564.16 10569.6 2790.75 7778.88 1170.02 3338.13 589.377 2331.86 697.651 6608.86 1516.09 1515.29 365.202 1334.64 330.785 1669.25 224.098 1121.5 284.639 1229.52 299.316 2036.9 199.102 389.53
internal_count=128080 99044 15670 83374 25288 58086 11347 46739 12365 34374 5128 15184 2571 10104 2999 29246 6605 6537 1556 5887 1426 7392 969 4973 1229 5460 1281 9133 856 1654
is_linear=0
shrinkage=0.05


Tree=13
num_leaves=31
num_cat=0
split_feature=0 8 8 8 8 8 8 8 8 8 8 8 8 8 8 8 8 3 8 6 3 1 3 4 3 4 8 6 0 3
split_gain=13626.7 1402.91 2191.56 324.431 261.718 185.04 109.844 74.8058 37.7963 29.3053 22.5538 22.3321 16.2889 16.1506 14.445 11.5707 10.5143 5.54059 5.04147 4.97509 4.19687 5.84378 5.33316 6.25471 5.63861 4.65459 4.19569 3.88568 4.24425 3.88343
threshold=90.500000000000014 58.020566106935199 85.489209562950009 62.338466983793772 91.966598415233946 79.156388897858037 53.120472665821588 66.104166652342798 95.325474511178854 59.989901471188197 83.098703578250934 55.647677016068776 88.38845857825919 77.140443794949306 68.25473022442911 98.297674312225112 50.767458334947925 96.970064987301939 90.351956295057406 69.500000000000014 95.334209383915621 13.500000000000002 96.636508117504732 138.50000000000003 96.695413351925325 114.50000000000001 64.30897339324649 82.500000000000014 62.500000000000007 99.72210778711711
decision_type=2 2 2 2 2 2 2 2 2 2 2 2 2 2 2 2 2 2 2 2 2 2 2 2 2 2 2 2 2 2
left_child=1 6 3 9 12 7 16 26 -6 -3 -7 -8 -4 14 -9 20 -1 -18 19 -14 21 -10 23 25 -24 -22 -5 -20 -29 -13
right_child=-2 2 4 5 8 10 11 13 15 -11 -12 29 18 -15 -16 -17 17 -19 27 -21 22 -23 24 -25 -26 -27 -28 28 -30 -31
leaf_value=0.02941474921228043 0.06870392166510654 -0.01018749195337041 -0.015170074597848783 -0.031938253192977675 0.0032411342956119174 -0.0320174924330262 0.0086882238759439859 -0.042064682318935426 0.023443876340091329 -0.022672230492689724 -0.022645616642318858 -0.00073051963525296644 -0.012412992223428196 -0.040087293509246863 -0.048922385946132782 0.018579881661637012 0.014748914669764466 0.022262038080066635 -0.0055103875207066942 -0.0038861531786868863 0.0049203516073942207 -0.00636671696768686 -0.019630313205225989 -0.019884378289220329 0.010151540449045718 0.020993919775476197 -0.037024138175216589 0.046819323200754229 0.0032195405003388276 -0.014392832391907504
leaf_weight=346.82283607125282 5738.8525536954403 854.12498445808887 1277.611699834466 873.07587933540344 1434.3946272879839 1708.977466866374 1138.3963436335325 964.90969361364841 21.331640630960464 1045.9045842587948 1030.4181109666824 982.38788455724716 619.79754948616028 856.0818572640419 3877.3951936066151 785.67112149298191 401.94178158044815 634.06386828422546 605.58310241997242 236.43160678446293 54.18530210852623 70.479459956288338 16.107361868023872 11.01362060010433 848.06296566128731 268.88432490825653 773.09230613708496 6.0739857107400885 58.405524045228958 54.82106140255928
leaf_count=1569 29036 3831 5829 3940 6559 7783 5138 4341 98 4700 4713 4426 2828 3893 17451 3593 1810 2865 2766 1082 247 321 73 50 3876 1232 3490 28 266 246
internal_value=0.000136024 -0.0178681 -0.0234543 -0.0360145 0.000384862 -0.0395856 0.0108571 -0.0437224 0.0094829 -0.0170608 -0.0284932 0.00385315 -0.0110047 -0.0464353 -0.0475568 0.0137958 0.0218754 0.0193489 -0.00751714 -0.0100592 0.010881 0.000577529 0.0116703 0.017036 0.00959423 0.0183004 -0.0343288 -0.00426781 0.00739279 -0.00145395
internal_weight=27595.3 21856.4 18298 11984 6314.03 10084 3558.43 7344.55 3510.13 1900.03 2739.4 2175.61 2803.9 5698.39 4842.3 2075.74 1382.83 1036.01 1526.29 856.229 1290.06 91.8111 1198.25 334.083 864.17 323.07 1646.17 670.063 64.4795 1037.21
internal_count=128080 99044 82990 54142 28848 45611 16054 33115 16049 8531 12496 9810 12799 25685 21792 9490 6244 4675 6970 3910 5897 419 5478 1529 3949 1479 7430 3060 294 4672
is_linear=0
shrinkage=0.05


Tree=14
num_leaves=31
num_cat=0
split_feature=0 9 9 9 9 9 9 9 9 9 9 9 9 9 9 2 6 6 2 5 1 6 0 2 6 4 5 4 6 5
split_gain=12647.4 1091.12 238.357 167.726 75.081 42.3791 22.7868 21.7482 21.6991 20.0678 11.9106 8.34127 6.13599 4.19571 3.99287 3.67496 3.57918 4.37816 3.2597 3.42575 6.26834 3.17557 4.34734 3.57849 4.63632 4.24776 3.62151 3.1226 2.99847 3.75253
threshold=90.500000000000014 1.6055294234051392 1.9133394274833233 1.7040005422644646 1.5373064188705479 1.9660986775608997 1.6427537288444809 1.5763122676394461 1.8859596744600278 1.7776260442428105 1.8620660823674078 1.521330177232846 1.9821533889531391 1.9426407236050514 1.7440707931352075 36.116534678445205 25.500000000000004 19.500000000000004 36.440583448871756 84.500000000000014 12.500000000000002 26.500000000000004 73.500000000000014 36.357716418991252 28.500000000000004 124.50000000000001 83.500000000000014 117.50000000000001 68.500000000000014 73.500000000000014
decision_type=2 2 2 2 2 2 2 2 2 2 2 2 2 2 2 2 2 2 2 2 2 2 2 2 2 2 2 2 2 2
left_child=1 4 3 6 11 13 -3 -6 9 14 27 21 -7 -4 -5 16 17 -8 19 -14 -21 -1 -23 26 -25 -26 28 -11 29 -24
right_child=-2 2 5 8 7 12 15 -9 -10 10 -12 -13 18 -15 -16 -17 -18 -19 -20 20 -22 22 23 24 25 -27 -28 -29 -30 -31
leaf_value=0.023951703282619245 0.067464049604229151 -0.013215742278304847 -0.017924109041003455 -0.026097603158196581 0.0034873337061371336 -0.0086201416152882852 0.0033817366505395061 -0.005117530186046171 -0.023612238696103509 -0.036663773994982898 -0.028166204842128041 0.008988493490297152 -0.010378807682499755 -0.013661592670664189 -0.029686997153721362 -0.021280425955970524 -0.012118180122098639 -0.044538154072984781 -3.8793430150496432e-05 0.055343692024340599 -0.0016786235601554123 0.019101610984024991 -0.0045163060719527331 -0.028455125483465262 0.016034165476201834 0.0047612564151336577 0.0061497408968022834 -0.033352972456319609 0.041827419263478452 0.028143023728618672
leaf_weight=117.91349670290947 5556.7262071222067 1630.0852730125189 1294.7980186492205 1703.3189448714256 1733.517281010747 691.56865075230598 6.3915041685104397 1273.7790627330542 1199.695812061429 990.97297352552414 1035.7561282813549 678.42264258861542 180.41766093671322 1046.29254296422 1441.3536114692688 2440.9168486297131 190.78294777870178 18.494023531675339 546.67294299602509 5.2591153234243384 47.815144911408424 377.43104439973831 12.069414854049681 7.8214285373687735 163.16639640927315 171.43211124837399 31.175259813666344 2671.2210826277733 22.167338445782661 32.075908124446869
leaf_count=544 29036 7382 5860 7763 7870 3133 29 5791 5480 4540 4736 3088 817 4736 6582 11060 864 84 2479 24 217 1728 55 35 744 781 141 12231 103 147
internal_value=0.000138762 -0.0170517 -0.0228645 -0.026018 0.00451129 -0.0118403 -0.0178711 -0.000157416 -0.0298799 -0.0308384 -0.0329092 0.0132115 -0.00519141 -0.0160197 -0.0277437 -0.020727 -0.0144569 -0.0322663 -0.00215133 -0.00709526 0.00406516 0.0162736 0.0151631 0.0117803 0.00936922 0.0102616 0.0202308 -0.0342498 0.0268315 0.0192239
internal_weight=27319.5 21762.8 17141.8 13329 4620.97 3812.82 4286.67 3007.3 9042.32 7842.62 4697.95 1613.68 1471.73 2341.09 3144.67 2656.59 215.668 24.8855 780.165 233.492 53.0743 935.252 817.339 439.908 342.42 334.599 97.4879 3662.19 66.3127 44.1453
internal_count=128080 99044 78017 60751 21027 17266 19419 13661 41332 35852 21507 7366 6670 10596 14345 12037 977 113 3537 1058 241 4278 3734 2006 1560 1525 446 16771 305 202
is_linear=0
shrinkage=0.05


Tree=15
num_leaves=31
num_cat=0
split_feature=8 8 8 8 8 8 8 8 8 8 8 8 8 8 8 3 8 6 5 8 5 3 8 2 6 2 2 5 3 4
split_gain=978.947 1700.48 200.983 141.962 130.999 90.525 49.5641 21.5024 19.5777 17.8734 15.6468 12.8847 12.7529 11.9388 9.16126 5.54158 4.4363 4.01104 3.68311 3.59875 3.58107 3.83736 3.58053 3.47849 5.61736 3.42128 3.93993 3.40717 3.5944 3.56368
threshold=87.821299069865347 59.788729571945119 82.316962799431508 54.680828073299224 64.30897339324649 93.352727032509151 78.345259000191973 51.764233479257683 97.892594983907273 56.42926409893159 68.25473022442911 90.146858854456895 62.538366471411187 85.29999034726319 74.749802982894764 98.266838931263962 60.782403800565739 36.500000000000007 77.500000000000014 92.957523329981115 87.500000000000014 95.391942783348696 65.704880719824828 37.44643627317641 24.500000000000004 36.671358518856927 36.536353048922159 84.500000000000014 95.078670765470193 128.50000000000003
decision_type=2 2 2 2 2 2 2 2 2 2 2 2 2 2 2 2 2 2 2 2 2 2 2 2 2 2 2 2 2 2
left_child=1 3 4 7 12 11 10 15 -7 -5 22 -2 16 -4 -12 20 -3 19 -9 -13 -1 -22 27 -18 -25 26 -23 28 29 -6
right_child=5 2 13 9 6 8 -8 18 -10 -11 14 17 -14 -15 -16 -17 23 -19 -20 -21 21 25 -24 24 -26 -27 -28 -29 -30 -31
leaf_value=0.031666190649882617 0.0066089514104294925 5.7640601494682204e-05 -0.0051296379185247262 0.016625995187437903 -0.0076520741646791393 0.019710349258666826 -0.012544302013307737 0.026722704940096671 0.02760409574547559 0.0081993533730174966 -0.02410853753117739 0.010970364190969173 -0.010912995714497234 0.0012212933575440118 -0.019818520578254912 0.038457615833774106 -0.0050073997980454154 0.014798871318737037 0.021849457062182779 -0.0025027245558028361 -0.015080736963537376 0.019980657043413275 -0.019050835743452711 0.031763446112003053 -0.028939926011064512 0.036530855751407285 -0.031090183829271468 -0.020501684672078233 -0.013349356694018117 0.049638778640218859
leaf_weight=569.75809946656227 1259.2957815527916 544.20773112773895 1587.1687439680099 960.58243241906166 6.7625666856765729 2431.0691274255514 2132.4059757888317 662.08541095256805 1162.0253995805979 1825.4824579507113 3529.31764960289 404.85171416401863 963.38555429875851 1386.2091567665339 1928.7311551123857 339.49080765247345 940.94875781238079 1220.9776162356138 949.39176309108734 56.437148317694664 7.4085997194051734 18.456804424524311 1387.0782957524061 4.2835045456886283 29.815303176641464 24.266670569777489 4.6469026654958716 192.22422179579735 547.19215163588524 4.4096353501081467
leaf_count=2683 5991 2539 7570 4503 32 11574 10120 3115 5548 8534 16625 1930 4531 6586 9171 1607 4407 5832 4459 267 34 87 6532 20 139 116 21 903 2577 21
internal_value=8.26755e-05 -0.00527867 -0.0138263 0.0189283 -0.0166649 0.0169392 -0.0192811 0.0273902 0.0222639 0.0111052 -0.0211722 0.0104345 -0.00641302 -0.00216885 -0.0225929 0.0332997 -0.00355897 0.0132977 0.0238532 0.00932179 0.0304902 0.0182236 -0.0175438 -0.00557733 -0.0212438 0.0234532 0.00961894 -0.0147566 -0.0127755 0.0152002
internal_weight=27080.4 20545.7 15184.1 5361.57 12210.8 6534.66 9728.12 2575.51 3593.09 2786.06 7595.72 2941.56 2482.64 2973.38 5458.05 964.028 1519.26 1682.27 1611.48 461.289 624.537 54.779 2137.67 975.048 34.0988 47.3704 23.1037 750.589 558.364 11.1722
internal_count=128074 96932 71773 25159 57617 31142 45981 12122 17122 13037 35861 14020 11636 14156 25796 4548 7105 8029 7574 2197 2941 258 10065 4566 159 224 108 3533 2630 53
is_linear=0
shrinkage=0.05


Tree=16
num_leaves=31
num_cat=0
split_feature=0 8 9 9 8 8 9 9 8 8 9 8 9 8 9 9 8 9 8 9 8 9 8 8 9 9 8 8 9 9
split_gain=11755.2 1221.86 6419.72 4419.06 8081.13 2071.33 3261.94 1055.76 3116.72 701.675 1347.22 511.256 1294.38 438.25 1144.39 321.804 564.312 258.704 498.039 224.951 475.296 190.373 450.419 171.892 333.507 141.858 715.787 128.086 285.815 126.744
threshold=90.500000000000014 58.997311791175839 1.718060996976045 1.6862072805748105 76.730620780489019 67.667700179621292 1.8482413128753532 1.7715941133728175 89.372163674713462 71.427808654231441 1.581901154116925 82.500174033319794 1.6290047888625951 72.423566959079579 1.950407722144966 1.6780926156111737 53.3235424328345 1.7675525813223112 56.615602404289753 1.8050978913363478 61.926669320520624 1.8917599125706925 65.103499927483355 92.957523329981115 1.7478852062405126 1.8169762398641729 96.711286280115146 86.462929501138092 1.7118745126873964 1.5251750516147109
decision_type=2 2 2 2 2 2 2 2 2 2 2 2 2 2 2 2 2 2 2 2 2 2 2 2 2 2 2 2 2 2
left_child=1 2 15 4 9 6 19 8 27 29 -11 12 -6 14 -9 -1 -17 18 -4 -5 -21 22 -8 24 -10 26 -15 -7 -29 -3
right_child=-2 3 17 5 11 7 21 13 23 10 -12 -13 -14 25 -16 16 -18 -19 -20 20 -22 -23 -24 -25 -26 -27 -28 28 -30 -31
leaf_value=-0.07332220399693011 0.066358650733170474 -0.036948857833560514 0.060613144571279969 -0.070561027943265825 0.067090700395205469 -0.070991413366707279 0.065048388774536878 -0.062014426959958104 0.059949993188779555 0.053064217565601729 -0.070790856716763148 0.070161750459611705 -0.059120196681034624 -0.067981420987860752 0.068476418453513363 0.067988989874575453 -0.068725608650009665 0.072566031931974945 -0.066439340979252345 0.058083628454947162 -0.065756896397044004 0.073363282842896754 -0.065581337317402372 0.073229669489221522 -0.065177283046785758 -0.072675072222653889 0.054750094282788389 0.058987299982030728 -0.066391332656000113 -0.073209160757791811
leaf_weight=1428.1185690462589 5362.3684177845716 279.9256205111742 305.8033676892519 869.27272184193134 648.01007242500782 1326.2707825303078 233.69589993357658 723.15843935310841 182.4076761752367 400.2064124494791 486.16728952527046 2762.5327238738537 295.80197121202946 930.06550970673561 218.7692998945713 119.79992114007473 203.64783760905266 1838.2321826070547 103.04734008014202 118.76879221200943 222.43436799943447 823.18845970928669 91.848214358091354 531.54025477170944 75.099559605121613 4344.4815955907106 136.11686934530735 64.150479674339294 155.34447719156742 1747.2049863934517
leaf_count=6270 28973 1220 1362 4070 2924 6277 1017 3360 801 1740 2217 13007 1295 4344 932 522 897 8518 450 502 1027 3708 408 2419 324 19988 570 271 695 7966
internal_value=7.91217e-05 -0.0163261 0.00863226 -0.0219752 0.0103283 -0.0413335 0.000213805 -0.0526162 -0.0238635 -0.0519792 -0.0148694 0.0593074 0.0275326 -0.0631833 -0.031703 -0.0631233 -0.0180833 0.0645649 0.0285822 -0.0570577 -0.0226451 0.0605633 0.028184 0.0569879 0.0234467 -0.0686629 -0.0523089 -0.0651358 -0.0297375 -0.0682041
internal_weight=27027.5 21665.1 3998.65 17666.5 6619.85 11046.6 2359.21 8687.4 2334.81 2913.5 886.374 3706.34 943.812 6352.59 941.928 1751.57 323.448 2247.08 408.851 1210.48 341.203 1148.73 325.544 789.047 257.507 5410.66 1066.18 1545.77 219.495 2027.13
internal_count=128074 99101 18019 81082 30369 50713 10732 39981 10787 13143 3957 17226 4219 29194 4292 7689 1419 10330 1812 5599 1529 5133 1425 3544 1125 24902 4914 7243 966 9186
is_linear=0
shrinkage=0.05


Tree=17
num_leaves=31
num_cat=0
split_feature=0 8 8 8 8 8 8 8 8 8 8 8 8 8 8 8 3 8 2 0 5 5 3 4 0 6 2 6 3 5
split_gain=10978.4 1132.26 1900.04 163.322 200.514 153.004 127.873 49.7249 29.8529 25.5286 22.3049 20.7988 13.2058 10.4317 10.0456 9.76583 5.4369 5.07499 4.41325 6.21891 4.16056 3.85976 3.82623 3.71377 3.57852 3.52425 3.4623 3.42512 3.26559 3.17797
threshold=90.500000000000014 58.997311791175839 86.658515518639589 62.538366471411187 79.156388897858037 93.352727032509151 54.680828073299224 65.704880719824828 83.098703578250934 51.764233479257683 97.892594983907273 90.146858854456895 56.42926409893159 76.944450217360455 69.053185933860433 60.782403800565739 98.266838931263962 95.325474511178854 36.905761453069225 65.500000000000014 87.500000000000014 77.500000000000014 95.096456552166913 125.50000000000001 88.500000000000014 81.500000000000014 36.087697722444652 18.500000000000004 95.391942783348696 75.500000000000014
decision_type=2 2 2 2 2 2 2 2 2 2 2 2 2 2 2 2 2 2 2 2 2 2 2 2 2 2 2 2 2 2
left_child=1 6 3 15 7 11 9 -5 -6 16 17 24 23 14 -9 -3 20 27 19 -16 -1 22 -11 -8 -4 -13 -26 -7 -22 -14
right_child=-2 2 5 4 8 10 12 13 -10 21 -12 25 29 -15 18 -17 -18 -19 -20 -21 28 -23 -24 -25 26 -27 -28 -29 -30 -31
leaf_value=0.022602987705149073 0.065310548754603723 -0.013668965479047569 -0.0092342159270587202 -0.03128609019621053 -0.029357861641937873 0.030996402236844075 0.0073050771930274474 -0.039425267110894266 -0.01958591278322316 -0.014095765650400452 0.017113685825163191 -0.0021050205866072818 -0.0086683957234751832 -0.037112883067786866 -0.0402107586973365 -0.021665167294651965 0.03006033538446537 0.0098687759704240482 -0.042214110347227565 -0.047346194903487078 -0.027080474315779469 0.010433886451323655 0.016639561169274147 0.00030023083750284666 -0.059830142818733362 0.0063292598237551304 -0.017030133285556179 0.004272858375222237 0.011963337228673807 -0.0027956455766616644
leaf_weight=454.06444780528545 5180.6116401255131 757.5656123906374 1389.1820417493582 1334.6778308749199 1656.8027755618095 12.072512879967688 404.43677888810635 1408.7286634743214 1481.6005923748016 10.258418738842009 914.8815194517374 1158.6568850427866 326.89448188245296 911.48439988493919 382.94088485836983 771.68654763698578 266.78402322530746 1084.5541562289 1314.3656274229288 1612.292700484395 6.1654941439628592 751.40698531270027 512.25604788959026 355.50845748186111 4.9139532148838034 138.57903687655926 88.553624674677849 814.39224328100681 36.896845310926437 780.08072900772095
leaf_count=2107 28973 3480 6530 6235 7831 57 1863 6631 6996 47 4314 5448 1500 4330 1806 3574 1247 5095 6206 7628 28 3467 2372 1633 23 653 416 3829 171 3584
internal_value=7.95978e-05 -0.0159042 -0.0214112 -0.032935 -0.0352401 0.00250099 0.00840694 -0.0399689 -0.0247454 0.0170671 0.0106937 -0.00582743 -0.00104642 -0.0420268 -0.0429752 -0.0177051 0.0242942 0.00761948 -0.044485 -0.0459788 0.0211944 0.0127317 0.0160336 0.00402862 -0.00987267 -0.0012036 -0.0193418 0.00466692 0.00632341 -0.00453052
internal_weight=26323.3 21142.7 17237.9 11632.1 10102.9 5605.79 3904.75 6964.49 3138.4 2037.83 2825.9 2779.89 1866.92 5629.81 4718.33 1529.25 763.911 1911.02 3309.6 1995.23 497.127 1273.92 522.514 759.945 1482.65 1297.24 93.4676 826.465 43.0623 1106.98
internal_count=128074 99101 81082 54717 47663 26365 18019 32836 14827 9439 13295 13070 8580 26601 22271 7054 3553 8981 15640 9434 2306 5886 2419 3496 6969 6101 439 3886 199 5084
is_linear=0
shrinkage=0.05


Tree=18
num_leaves=31
num_cat=0
split_feature=0 9 9 9 9 9 9 9 9 9 9 9 9 2 3 3 5 0 1 6 4 2 3 2 3 4 1 5 2 6
split_gain=10221.3 926.211 210.933 140.656 62.1306 48.3932 20.4365 16.7291 16.2548 14.4316 8.98999 4.9053 4.56229 4.53588 4.23831 6.61329 4.92209 4.34782 4.51275 3.6975 3.83348 3.63979 3.58271 3.54383 3.53136 5.40154 3.44209 3.3424 3.22481 3.16838
threshold=90.500000000000014 1.5995734269610959 1.9367818189488952 1.7059360631983893 1.550782470665006 1.887952335579123 1.7617202967016923 1.6427537288444809 1.9660986775608997 1.521330177232846 1.8620660823674078 1.5607641183656364 1.9133394274833233 36.583369689851189 97.386561379126093 96.028804279948744 87.500000000000014 81.500000000000014 18.500000000000004 86.500000000000014 117.50000000000001 36.011725024246395 99.605883877932243 36.630634612032054 97.464598313151569 129.50000000000003 12.500000000000002 72.500000000000014 36.536353048922159 22.500000000000004
decision_type=2 2 2 2 2 2 2 2 2 2 2 2 2 2 2 2 2 2 2 2 2 2 2 2 2 2 2 2 2 2
left_child=1 4 3 7 9 6 -5 27 26 -1 19 22 -7 -9 15 -13 24 18 -18 20 21 -8 29 -15 25 -16 -4 -3 -28 -6
right_child=-2 2 8 5 11 12 10 13 -10 -11 -12 14 -14 23 16 -17 17 -19 -20 -21 -22 -23 -24 -25 -26 -27 28 -29 -30 -31
leaf_value=0.016396140678855156 0.064344506096556509 -0.017111307167997095 -0.0049527064089372776 -0.024222733149562005 0.021337313187244165 -0.021811385293384816 0.00057892101990202559 -0.015525793743690064 -0.0039476960123756549 0.0081464981007043601 -0.025793232677765045 -0.0043208008608534463 -0.017124349616523937 -0.029549307043964058 -0.038617689980619797 0.004948331142246582 -0.017686732764087255 0.0024432672016753724 -0.058430643751665436 -0.03814179078848972 -0.029673880612800171 -0.033427274695946918 -0.011754508665582773 -0.019208847557387991 -0.0023568772302467447 0.011068648250474787 -0.016390218509223363 -0.011035575269504688 -0.010722052331603685 0.0043382789268424284
leaf_weight=913.83911879360676 5000.0498248040676 264.82173222303391 162.49454122781754 2300.3816888779402 29.601039364933968 1079.2518195807934 7.9234575778245917 1032.9350677132607 1428.3984856754541 1263.3992100954056 1075.2611932605505 341.00830090045929 1006.7864429652691 87.901705056428909 15.960451021790506 441.40704882144928 49.140004709362984 22.796746879816055 7.8284770250320426 172.03484885394573 2924.0966573059559 1071.2775295227766 31.94560307264328 1532.5750888437033 748.9820474088192 8.2390402853488904 391.96256305277348 1573.3753963410854 700.92996956408024 357.31492577493191
leaf_count=4272 28973 1240 755 10934 138 5109 37 4853 6652 5880 5111 1589 4709 413 74 2062 228 106 36 823 13964 5129 148 7202 3493 39 1826 7354 3264 1661
internal_value=8.45105e-05 -0.015184 -0.0204465 -0.0228874 0.00572484 -0.0262933 -0.0281559 -0.0155792 -0.00759609 0.0116097 -0.0298786 -0.000512646 -0.0195502 -0.0181194 -0.00174921 0.000908432 -0.00418691 -0.0160047 -0.0233782 -0.0309301 -0.0306192 -0.0331776 0.00431454 -0.0197715 -0.00296582 -0.0217254 -0.0117466 -0.0119118 -0.0127562 0.00564397
internal_weight=26043.9 21043.9 16812.4 14128.6 4231.46 9637.01 7550.98 4491.61 2683.79 2177.24 5250.59 2054.22 2086.04 2653.41 1635.36 782.415 852.947 79.7652 56.9685 4175.33 4003.3 1079.2 418.862 1620.48 773.182 24.1995 1255.39 1838.2 1092.89 386.916
internal_count=128074 99101 79375 66878 19726 45816 35998 21062 12497 10152 25064 9574 9818 12468 7627 3651 3976 370 264 19953 19130 5166 1947 7615 3606 113 5845 8594 5090 1799
is_linear=0
shrinkage=0.05


Tree=19
num_leaves=31
num_cat=0
split_feature=0 9 9 9 9 9 9 9 9 9 9 9 2 3 3 9 6 9 9 2 4 1 0 4 4 6 9 3 2 9
split_gain=9521.6 839.621 192.349 129.176 56.1685 44.6671 19.0484 15.3524 14.6995 13.2298 7.39605 5.57891 4.76379 4.44116 6.7826 4.17317 3.96972 3.56533 3.38375 3.3996 3.29537 3.47626 3.60468 3.90795 3.26471 3.23192 3.19583 3.17757 4.23663 3.4848
threshold=90.500000000000014 1.5995734269610959 1.9367818189488952 1.7059360631983893 1.550782470665006 1.887952335579123 1.7519535784070619 1.6348239526276529 1.9660986775608997 1.5174706920960119 1.8620660823674078 1.787407283802529 36.583369689851189 97.205295491287956 95.866937659668409 1.9133394274833233 86.500000000000014 1.587503430404573 1.583828148563754 37.399533210343286 137.50000000000003 12.500000000000002 67.500000000000014 122.50000000000001 133.50000000000003 22.500000000000004 1.9560060575638916 95.53187551931849 36.122144945554844 1.5489867779340047
decision_type=2 2 2 2 2 2 2 2 2 2 2 2 2 2 2 2 2 2 2 2 2 2 2 2 2 2 2 2 2 2
left_child=1 4 3 7 9 6 -5 -3 20 25 11 -8 -9 14 17 -7 -13 -6 19 -16 21 22 23 -4 26 -1 -24 28 -11 -30
right_child=-2 2 8 5 13 15 10 12 -10 27 -12 16 -14 -15 18 -17 -18 -19 -20 -21 -22 -23 24 -25 -26 -27 -28 -29 29 -31
leaf_value=0.028708792821883097 0.063452299720904645 -0.010713779722141921 0.028092528784588289 -0.02255258857427471 -0.00044929744230723145 -0.020787720314977318 -0.026673395386787715 -0.014404661883407617 -0.0037509202036226114 -0.027545547122272303 -0.024614298632254894 -0.030075408306070091 -0.018509826024249634 -0.002573714749643405 0.0095773841536520351 -0.01629951267124739 -0.039257841795900111 -0.012119739881003365 -0.00027957571368250665 -0.0082409055859123306 -0.020941111828526031 -0.011550297165068231 -0.017534590463726109 -0.0039531873794106005 0.01327377824706037 0.015556726430033788 0.0016146871230063916 0.0090472078159391876 0.0056378242676963283 -0.029515466045862554
leaf_weight=50.156818866729736 4821.3676471412182 1508.4692321121693 16.459317490458488 1887.5948507785797 280.95724667608738 1075.871286675334 1449.0449777692556 1162.1515735685825 1428.177616506815 11.547689229249952 1070.5514775812626 2978.1192452609539 1813.948417276144 1137.6887645125389 352.15378837287426 1004.9023190587759 123.63706184923649 85.219232007861137 168.76372224092484 28.895746305584908 80.726218789815903 1020.2676199376583 66.624466776847839 22.310459047555923 15.59041218459606 694.66131117939949 32.328890591859818 1275.3884585499763 135.58627067506313 7.337622106075286
leaf_count=238 28973 7055 76 9003 1306 5109 6963 5468 6652 53 5111 14324 8539 5303 1641 4709 597 399 790 135 377 4756 310 104 72 3252 150 5943 632 34
internal_value=9.07054e-05 -0.014467 -0.0194909 -0.0218296 0.00544267 -0.0251054 -0.026902 -0.0148243 -0.00721999 0.0110426 -0.028362 -0.0292431 -0.0169073 -0.000487472 0.00210371 -0.018621 -0.0304427 -0.00316789 0.00561454 0.00822438 -0.0111693 -0.0104954 -0.00347265 0.00968877 -0.00793198 0.0164461 -0.011283 0.00822696 0.0014531 0.0038137
internal_weight=25806.5 20985.1 16756.8 14074.3 4228.36 9589.72 7508.95 4484.57 2682.49 2174.68 5621.35 4550.8 2976.1 2053.68 915.99 2080.77 3101.76 366.176 549.813 381.05 1254.31 1173.58 153.314 38.7698 114.544 744.818 98.9534 1429.86 154.472 142.924
internal_count=128074 99101 79375 66878 19726 45816 35998 21062 12497 10152 26995 21884 14007 9574 4271 9818 14921 1705 2566 1776 5845 5468 712 180 532 3490 460 6662 719 666
is_linear=0
shrinkage=0.05


Tree=20
num_leaves=31
num_cat=0
split_feature=0 9 9 9 9 9 9 9 9 9 9 9 3 5 2 6 9 9 6 4 3 5 4 0 0 4 3 2 2 4
split_gain=8855.08 739.99 169.462 118.221 52.7471 41.6873 19.2582 14.5517 13.5467 21.1208 11.2109 5.64238 5.27621 5.31679 5.11485 5.05506 4.59131 4.23885 4.26605 5.14178 4.2382 4.08682 3.97979 3.90876 5.64621 3.53497 4.45165 3.4879 3.4288 3.32485
threshold=90.500000000000014 1.5976267396867079 1.9426407236050514 1.7059360631983893 1.9072846620599149 1.5373064188705479 1.6309482847296513 1.9821533889531391 1.7519535784070619 1.8620660823674078 1.5857450327512499 1.5174706920960119 97.205295491287956 82.500000000000014 37.226728726492617 44.500000000000007 1.787407283802529 1.5586286555293412 54.500000000000007 138.50000000000003 95.412325013481407 71.500000000000014 137.50000000000003 72.500000000000014 73.500000000000014 110.50000000000001 99.174207288899311 36.500868647636587 36.099043882457707 138.50000000000003
decision_type=2 2 2 2 2 2 2 2 2 2 2 2 2 2 2 2 2 2 2 2 2 2 2 2 2 2 2 2 2 2
left_child=1 5 3 6 8 11 -3 27 -5 16 12 -1 14 22 29 -9 21 -15 19 -19 28 -10 23 -14 -25 26 -22 -4 -13 -7
right_child=-2 2 7 4 -6 10 -8 15 9 -11 -12 20 13 17 -16 -17 -18 18 -20 -21 25 -23 -24 24 -26 -27 -28 -29 -30 -31
leaf_value=0.014604891591780947 0.062624147501830305 -0.0090576822150369024 -0.012120570504224493 -0.021488354656953548 -0.014978293554603398 0.0079388499518717719 -0.016094811714808473 -0.0056964525191815045 -0.017671203669417882 -0.02188990844534415 -0.0057130267902960191 -0.043465196050770566 0.0064838951712348691 0.0017662616200165222 -0.0022588231210002104 0.0027251305240094774 -0.029295861060877688 -5.4509053488535991e-05 -0.015696853304780562 -0.051128190431979914 0.016954285028344569 -0.026730442296447367 0.016445126181034872 -0.025333489077454915 0.00030539765928146482 0.0090669560944646507 0.068083721252701027 -0.0072547935362882073 -0.00013255858691924708 -0.0094622379125848723
leaf_weight=752.56670637428761 4633.3497465252876 1412.9638500064611 551.3146910071373 1870.0134466141462 1478.5081201791763 734.80080381035805 3120.2140444368124 288.42709918320179 138.51618924736977 1888.078297317028 482.56078536808491 4.8111361861228934 287.80422930419445 176.1592290699482 171.78123772144318 465.84843738377094 3055.5930613726377 119.3428495824337 109.45107081532478 5.0401177853345862 19.710475459694866 1305.0017000883818 51.060420662164688 22.608332395553589 394.7795288413763 730.37267969548702 5.371396839618682 1111.9655772745609 64.803454846143723 28.435138642787933
leaf_count=3531 28903 6612 2572 8958 6948 3426 14712 1341 666 9024 2254 22 1345 819 802 2173 14806 555 509 23 92 6306 239 103 1836 3406 25 5183 302 132
internal_value=0.000101953 -0.0137935 -0.0184978 -0.0205718 -0.0236775 0.00506936 -0.0139016 -0.00625609 -0.0252349 -0.0263315 0.00115884 0.0114735 0.00273718 0.000493671 0.00553515 -0.000495523 -0.0281949 -0.00409078 -0.00850207 -0.00216347 0.00861579 -0.0258624 0.00297929 0.00200209 -0.0010891 0.00970353 0.0281308 -0.00886825 -0.00318537 0.0072894
internal_weight=25481.3 20847.9 16686.4 14268.9 9735.71 4161.46 4533.18 2417.56 8257.2 6387.19 2583.82 1577.64 2101.26 1166.25 935.017 754.276 4499.11 409.993 233.834 124.383 825.069 1443.52 756.253 705.192 417.388 755.455 25.0819 1663.28 69.6146 763.236
internal_count=127625 98722 79301 68032 46708 19421 21324 11269 39760 30802 12043 7378 9789 5429 4360 3514 21778 1906 1087 578 3847 6972 3523 3284 1939 3523 117 7755 324 3558
is_linear=0
shrinkage=0.05


Tree=21
num_leaves=31
num_cat=0
split_feature=0 9 9 9 9 9 9 9 9 9 9 9 9 5 4 2 3 3 3 2 3 1 5 3 3 2 2 3 3 5
split_gain=8263.58 670.817 156.038 104.297 48.5267 40.8022 16.1144 13.1463 12.5459 19.6242 12.2507 5.77158 4.26963 3.75802 3.68879 3.49932 4.48721 4.37957 3.88213 3.98664 3.58564 3.31264 5.57728 3.32447 3.67002 6.20956 3.41826 4.44791 3.29569 3.21971
threshold=90.500000000000014 1.5995734269610959 1.9426407236050514 1.7059360631983893 1.9072846620599149 1.5607641183656364 1.6309482847296513 1.9821533889531391 1.7519535784070619 1.8620660823674078 1.5174706920960119 1.587503430404573 1.787407283802529 71.500000000000014 112.50000000000001 36.818632973277211 95.452395918776446 99.9023372900444 97.739156559881465 36.888389272095722 98.702744533638239 18.500000000000004 74.500000000000014 96.421124591515607 97.950781911241322 36.064125122522832 37.054816341658373 95.391942783348696 96.40188949237411 79.500000000000014
decision_type=2 2 2 2 2 2 2 2 2 2 2 2 2 2 2 2 2 2 2 2 2 2 2 2 2 2 2 2 2 2
left_child=1 5 3 6 8 10 -3 -4 -5 12 -1 -7 13 -10 28 16 -9 18 -17 20 -20 -8 -23 26 -25 -26 27 -24 -12 -16
right_child=-2 2 7 4 -6 11 21 15 9 -11 14 -13 -14 -15 29 17 -18 -19 19 -21 -22 22 23 24 25 -27 -28 -29 -30 -31
leaf_value=0.013899377538746536 0.061859150915506068 -0.0087438282118983933 -0.0084300346145985468 -0.020492843502348798 -0.014255211852844646 0.00037567498251136631 -0.015927457611165877 -0.020282036812149407 -0.016845605215723258 -0.02087586822837716 0.023839365388604525 -0.0061025021213881323 -0.028033210013007716 -0.025548087495760586 0.0034210967220044291 0.0073901856792477211 -0.0019174500224889346 0.039919358043724706 0.052946454454179198 -0.0060204869945212312 -0.0014071629851232477 -0.021393357760720034 0.012558211713479312 0.0038003874883127671 0.041863993145484474 -0.0123249025044572 -0.03303617084222199 -0.018250556536870025 0.0088501208209408062 0.0078330363853692849
leaf_weight=751.26672039926052 4460.4968090653419 1329.7882175296545 1662.2945395410061 1863.0007863491774 1475.9019113332033 1165.7133781164885 2735.3517916798592 36.327078610658646 138.05649650096893 1880.991272598505 51.136433333158493 487.53934015333652 3034.1224868148565 1297.3310723602772 846.21074579656124 179.21192799508572 383.2614114433527 7.8889676779508582 5.5630999058485013 135.41079871356487 6.5255331844091415 95.287745952606201 16.114386633038521 86.395042598247528 5.4521924704313269 111.87440876662731 21.532165721058846 42.24872300028801 129.85018830001354 809.14212228357792
leaf_count=3531 28903 6225 7755 8958 6948 5435 12926 169 666 9024 241 2279 14806 6306 3942 837 1785 37 26 630 30 451 76 404 25 527 103 200 605 3775
internal_value=0.00010719 -0.0131414 -0.0176878 -0.0196953 -0.0226042 0.00460069 -0.0133525 -0.00594608 -0.0241043 -0.0251634 0.00852074 -0.00153497 -0.0269673 -0.0247123 0.00631965 -0.000470843 -0.00351187 0.00334251 0.00244736 -0.00355911 0.0238351 -0.0153201 -0.0109326 -0.00741172 -0.00401784 -0.00977323 -0.0160498 -0.00973715 0.013096 0.00557801
internal_weight=25251.3 20790.8 16549.9 14133.4 9689.4 4240.86 4444.04 2416.48 8213.5 6350.5 2587.61 1653.25 4469.51 1435.39 1836.34 754.189 419.588 334.6 326.711 147.499 12.0886 3114.26 378.905 283.617 203.722 117.327 79.8953 58.3631 180.987 1655.35
internal_count=127625 98722 78914 67645 46708 19808 20937 11269 39760 30802 12094 7714 21778 6972 8563 3514 1954 1560 1523 686 56 14712 1786 1335 956 552 379 276 846 7717
is_linear=0
shrinkage=0.05


Tree=22
num_leaves=31
num_cat=0
split_feature=0 9 9 9 9 9 9 9 9 9 9 2 9 2 1 9 3 3 0 6 9 2 4 9 2 6 4 9 1 2
split_gain=7717.94 608.126 142.224 100.597 38.687 36.8714 16.7715 14.64 11.1001 9.25777 13.4974 6.40965 5.20947 4.35971 5.37731 4.19957 3.64547 5.02876 3.95592 4.62866 6.16754 4.05127 5.2182 3.83171 3.67922 3.56421 3.51964 3.50738 4.75715 3.35989
threshold=90.500000000000014 1.5995734269610959 1.9367818189488952 1.7140194453855093 1.8977297541725717 1.5607641183656364 1.6445919488578775 1.9742847765540097 1.5174706920960119 1.7519535784070619 1.8600988304662389 36.116534678445205 1.587503430404573 36.464324606802741 12.500000000000002 1.787407283802529 99.883668781254869 98.702744533638239 62.500000000000007 70.500000000000014 1.9961968576658458 37.417084174789814 127.50000000000001 1.9961968576658458 37.387574474057956 84.500000000000014 129.50000000000003 1.9249612536994478 16.500000000000004 37.43427502435614
decision_type=2 2 2 2 2 2 2 2 2 2 2 2 2 2 2 2 2 2 2 2 2 2 2 2 2 2 2 2 2 2
left_child=1 5 3 6 9 8 -3 -4 -1 -5 15 27 -7 -9 -15 -11 17 18 -16 21 -21 24 29 -19 -20 -12 -18 -6 -29 -23
right_child=-2 2 7 4 11 12 -8 13 -10 10 25 -13 -14 14 16 -17 26 23 19 20 -22 22 -24 -25 -26 -27 -28 28 -30 -31
leaf_value=0.013227616607419241 0.061148957086668655 -0.0093694894624958974 -0.0093570633384495693 -0.020049624340750551 -0.03148137482157206 0.0003568957914765337 -0.015428995840695856 -0.0065372089274388498 0.0060076023712894834 -0.02361173045259804 -0.02104497844550457 -0.014130786448705281 -0.0057979269087050827 -0.010731862760172343 0.018054182129675168 -0.026929356824369095 0.041907958864207222 -0.009938273957734679 -0.0012757564705126205 0.016174914278888293 -0.017078995384883024 0.072299461039444429 -0.0099522874249922035 0.011259274855047087 -0.032465697418002204 -0.011472469129075725 -0.0070093200030203438 -0.025843767126903946 0.010028961164688486 0.021484415725665999
leaf_weight=749.98711955547333 4290.9812292009592 1900.7386134415865 1571.9696872085333 1529.460089713335 86.87727552652359 1165.7038843631744 2862.9738496243954 336.90650311112404 1835.2190369963646 1427.3979530483484 1437.2603698521852 1515.0547125935555 487.49937592446804 96.086692929267883 44.411841437220573 2930.6904072761536 10.683263972401621 130.37496523559093 289.78411471843719 94.125779703259468 16.28076097369194 4.2372138351202073 10.866323575377463 25.395737811923027 9.6744739562273008 104.71989892423153 5.5412359684705725 27.174445986747742 13.911655947566031 13.649074986577032
leaf_count=3531 28903 8918 7340 7392 419 5435 13585 1571 8563 6972 6938 7178 2279 448 207 14403 50 609 1347 441 76 20 51 118 45 502 26 129 65 64
internal_value=0.000112044 -0.0125196 -0.01686 -0.0188956 -0.021985 0.00437341 -0.0130115 -0.0062712 0.00810261 -0.0235205 -0.0244199 -0.0150402 -0.00145829 -0.00181229 0.000307627 -0.0258433 0.00192842 0.00133196 0.00385119 0.00240929 0.0112602 -0.000570579 0.0173235 -0.00647737 -0.0022939 -0.0203957 0.0252604 -0.0257881 -0.0137025 0.0338574
internal_weight=25025.6 20734.7 16496.2 13836.3 9072.55 4238.41 4763.71 2659.99 2585.21 7429.53 5900.07 1643.02 1653.2 1088.02 751.111 4358.09 655.025 638.8 483.03 438.618 110.407 328.211 28.7526 155.771 299.459 1541.98 16.2245 127.963 41.0861 17.8863
internal_count=127625 98722 78914 66501 43998 19808 22503 12413 12094 36207 28815 7791 7714 5073 3502 21375 3054 2978 2251 2044 517 1527 135 727 1392 7440 76 613 194 84
is_linear=0
shrinkage=0.05


Tree=23
num_leaves=31
num_cat=0
split_feature=0 9 9 9 9 9 9 9 9 9 9 3 5 2 6 9 3 4 9 0 0 9 6 4 5 2 5 1 9 9
split_gain=7214 551.265 129.875 88.0866 43.1447 33.7985 15.2599 10.9511 10.1525 14.1521 9.63021 4.71508 4.89998 4.61954 4.5058 3.91449 3.85765 3.6 3.58498 3.51236 5.09662 3.36418 3.88106 4.18575 3.33542 3.8235 3.5609 5.67535 4.15746 3.53335
threshold=90.500000000000014 1.5995734269610959 1.9426407236050514 1.7140194453855093 1.9072846620599149 1.5373064188705479 1.646432836909004 1.9821533889531391 1.8620660823674078 1.787407283802529 1.5857450327512499 97.205295491287956 82.500000000000014 37.226728726492617 44.500000000000007 1.5174706920960119 95.412325013481407 137.50000000000003 1.7440707931352075 72.500000000000014 73.500000000000014 1.5586286555293412 52.500000000000007 138.50000000000003 76.500000000000014 36.191509627019862 82.500000000000014 13.500000000000002 1.6095606330975765 1.6035079625766866
decision_type=2 2 2 2 2 2 2 2 2 2 2 2 2 2 2 2 2 2 2 2 2 2 2 2 2 2 2 2 2 2
left_child=1 5 3 6 8 15 24 -4 9 18 11 13 17 -7 -9 -1 -17 19 -5 -13 -21 -14 23 -23 -3 29 -27 28 -28 -26
right_child=-2 2 7 4 -6 10 -8 14 -10 -11 -12 12 21 -15 -16 16 -18 -19 -20 20 -22 22 -24 -25 25 26 27 -29 -30 -31
leaf_value=0.012587951882869396 0.060488667716656654 -0.011879440248407621 -0.0076255553791475935 -0.01868390610261875 -0.01289333857298694 0.0066011095727957995 -0.014771786610506064 -0.0052714715364155177 -0.019012563159306304 -0.025666511452601154 -0.0050682375496337922 0.0058737624346040657 0.00098304730067582898 -0.0024752493335410907 0.0026840150723421215 -0.0036742217079087113 0.0086294904858267626 0.015376326450706915 -0.022239367178642742 -0.024361318580960759 1.66704427613396e-05 0.00012686236952235956 -0.014699264541337709 -0.04733035441496683 0.022483600965333639 -0.0055823667820591207 -0.0035958791645697846 -0.0084694222701404264 -0.024073750622683698 -0.0028577201182354546
leaf_weight=748.73119208216667 4125.1310032457113 674.80340956151485 1660.2754570692778 1208.8308230787516 1470.5658670663834 762.30187296867371 2777.1930112987757 288.04401025176048 1867.2701844424009 2992.321650236845 564.87104727327824 287.50756677985191 175.95300467312336 171.71947455406189 465.44342438876629 69.534426316618919 753.6800183057785 50.925151154398918 1734.4062176793814 22.571766927838326 394.64371214807034 113.72766336798668 115.21352377533913 4.7442036271095267 14.936360239982603 520.77651362121105 31.512039184570312 459.01306469738483 116.69160917401314 161.35173778235912
leaf_count=3531 28903 3172 7755 5858 6948 3558 13208 1341 9024 14806 2641 1345 819 802 2173 324 3523 239 8506 103 1836 529 536 22 70 2442 147 2156 553 755
internal_value=0.000116492 -0.0119267 -0.0160702 -0.0179133 -0.0207508 0.00415713 -0.0123808 -0.00535685 -0.0222314 -0.0232437 0.00072642 0.00228578 0.00016423 0.00493234 -0.000357513 0.00997117 0.00758991 0.00255136 -0.0207798 0.00162254 -0.00130772 -0.00423879 -0.00816929 -0.00181188 -0.00902504 -0.00754744 -0.00861758 -0.0112194 -0.019725 -0.000699097
internal_weight=24804.7 20679.6 16443.4 14029.7 9273.39 4236.12 4756.28 2413.76 7802.83 5935.56 2664.18 2099.31 1165.29 934.021 753.487 1571.95 823.214 755.648 2943.24 704.723 417.215 409.638 233.685 118.472 1979.08 1304.28 1127.99 607.217 148.204 176.288
internal_count=127625 98722 78914 67645 45142 19808 22503 11269 38194 29170 12430 9789 5429 4360 3514 7378 3847 3523 14364 3284 1939 1906 1087 551 9295 6123 5298 2856 700 825
is_linear=0
shrinkage=0.05


Tree=24
num_leaves=31
num_cat=0
split_feature=0 8 9 8 9 9 8 8 9 9 8 9 8 9 8 9 8 9 8 8 9 9 8 9 8 8 9 9 8 9
split_gain=6748.02 1022.35 7822.42 1790.05 6727.04 1559.68 3816.13 1402.3 3687.29 523.466 1195.98 397.701 563.477 320.624 599.708 279.52 470.572 278.918 555.263 259.101 622.91 242.494 1041.3 225.583 486.803 204.472 540.356 173.227 379.711 79.1905
threshold=90.500000000000014 87.821299069865347 1.7776260442428105 59.788729571945119 1.7219581218552888 1.6192086830398582 73.014337697695908 68.451442815088981 1.8482413128753532 1.6780926156111737 81.360285573045402 1.6862072805748105 53.708173875542052 1.7360724871892794 92.957523329981115 1.8169762398641729 97.305696175705364 1.7675525813223112 56.821472575628697 69.053185933860433 1.5373064188705479 1.9560060575638916 73.38822872166169 1.8958682110873721 65.103499927483355 77.140443794949306 1.5857450327512499 1.8150804056001835 62.338466983793772 1.9783144858553177
decision_type=2 2 2 2 2 2 2 2 2 2 2 2 2 2 2 2 2 2 2 2 2 2 2 2 2 2 2 2 2 2
left_child=1 3 13 4 11 6 19 8 27 10 -9 -1 -13 -3 -15 16 -4 18 -6 -5 -21 -11 29 24 -10 26 -8 -7 -29 -23
right_child=-2 2 15 5 17 7 25 9 23 21 -12 12 -14 14 -16 -17 -18 -19 -20 20 -22 22 -24 -25 -26 -27 -28 28 -30 -31
leaf_value=-0.070820199511739859 0.059873934013371981 0.070116839604327338 -0.056704111267005024 -0.071036456220227126 0.065719644022581042 -0.066806939880636185 0.063906086127534678 -0.060945150800296492 0.06886862868946679 -0.064325381309511764 0.056350602023692603 0.071617545284390113 -0.065644048608917677 -0.047143423216243735 0.072612330878690096 -0.070590702481255249 0.067349916917558997 0.073025558047773123 -0.063516820403769728 0.06586550060073347 -0.0659545237835618 0.033164155547316658 -0.070291763658226356 0.07378500889825533 -0.054027046101267601 0.070895124807104526 -0.061503646044066634 0.068199712115886532 -0.064332278528433817 0.096818097326560548
leaf_weight=1583.1205146312714 3963.2104991674423 2413.1084896326065 291.39112919569016 952.33670677244663 278.07745200395584 1300.1224205195904 319.59297086298466 606.73533880710602 229.32922960817814 4087.3611580580473 338.4723796993494 127.67781437933445 180.12934575974941 177.61282609403133 253.82262614369392 1818.9079977720976 103.52540026605129 1999.8041038066149 118.43445850908756 132.10893343389034 278.13317082822323 96.59855218231678 507.91262878477573 789.18434281647205 124.10949704051018 1056.0092475414276 117.35904085636139 80.21880692243576 165.13379946351051 99.099804535508156
leaf_count=7154 28903 11554 1406 4412 1219 6679 1418 2945 977 21273 1478 556 837 823 1106 8763 427 9155 557 569 1276 419 2438 3524 605 5002 530 338 854 428
internal_value=0.000120522 -0.0113614 0.00816687 -0.017707 0.00979466 -0.0281598 0.00377453 -0.0389844 -0.00918417 -0.052949 -0.0189408 -0.0607098 -0.00870344 0.063019 0.0233119 -0.0623123 -0.0241751 0.0654298 0.0271116 -0.0567268 -0.0234992 -0.0596579 -0.0325387 0.0589182 0.0257109 0.0589923 0.0302165 -0.0595351 -0.0209904 0.0654309
internal_weight=24588.6 20625.4 5058.37 15567.1 4287.24 11279.8 2855.54 8424.28 2688.1 5736.18 945.208 1890.93 307.807 2844.54 431.435 2213.82 394.917 2396.32 396.512 1362.58 410.242 4790.97 703.611 1142.62 353.439 1492.96 436.952 1545.48 245.353 195.698
internal_count=127625 98722 24079 74643 19478 55165 13207 41958 12977 28981 4423 8547 1393 13483 1929 10596 1833 10931 1776 6257 1845 24558 3285 5106 1582 6950 1948 7871 1192 847
is_linear=0
shrinkage=0.05


Tree=25
num_leaves=31
num_cat=0
split_feature=0 8 9 9 8 8 9 9 8 8 9 8 9 8 9 9 8 9 8 9 8 9 8 8 9 9 8 8 9 9
split_gain=6316.51 942.328 5828.68 3260.36 6966.43 2116.96 2728.95 947.415 2737.13 663.115 1146.39 480.547 973.974 436.067 1104.77 328.92 493.914 229.889 430.744 186.674 434.835 164.365 344.803 149.635 290.528 131.304 624.683 112.04 274.323 91.6615
threshold=90.500000000000014 58.997311791175839 1.718060996976045 1.6900252624308867 76.944450217360455 67.667700179621292 1.8402508001572304 1.7776260442428105 90.146858854456895 71.427808654231441 1.5782965778190783 72.227686943844901 1.9426407236050514 82.500174033319794 1.6309482847296513 1.6582893538846648 53.120472665821588 1.7636840272627177 56.034149164053296 1.8859596744600278 64.126954813723913 1.8012333835323575 61.550252271454987 87.430933728465206 1.7219581218552888 1.8187777318421603 96.711286280115146 93.352727032509151 1.7478852062405126 1.5313688998377122
decision_type=2 2 2 2 2 2 2 2 2 2 2 2 2 2 2 2 2 2 2 2 2 2 2 2 2 2 2 2 2 2
left_child=1 2 15 4 9 6 21 8 23 29 -11 12 -9 14 -6 -1 -17 18 -4 20 -8 -5 -23 -7 -25 26 -13 28 -10 -3
right_child=-2 3 17 5 13 7 19 11 27 10 -12 25 -14 -15 -16 16 -18 -19 -20 -21 -22 22 -24 24 -26 -27 -28 -29 -30 -31
leaf_value=-0.072578078302954874 0.059299732319534684 -0.040702793179251025 0.06448315781281469 -0.065274127639724497 0.065350573041683832 -0.064780288561141 0.07126714899399389 -0.058234709663027601 0.069690376319031272 0.05350462741421539 -0.062536298519745293 -0.063830562284725487 0.061261266827656882 0.067828916368254069 -0.054917486350692629 0.044086362825619084 -0.062663414446746599 0.0716613770716195 -0.053591038164829047 0.071796344480549834 -0.046108733687761097 0.058963768683674901 -0.059154436773120704 0.06287320317429676 -0.065221929414363555 -0.06731044034916904 0.053156997597823885 0.072672148901379754 -0.045790227708435556 -0.069175236770725373
leaf_weight=1220.0372608453035 3796.9159061908722 345.28729747235775 250.3609005510807 708.76738208532333 604.05137355625629 1257.1601598113775 214.17988002300262 554.61352969706059 151.78530864417553 381.21895617246628 481.61363096535206 744.38649183511734 246.11466991901398 2694.9724083095789 279.09716461598873 172.00353965163231 292.47872975468636 1847.553746432066 111.59607180953026 870.62868015468121 124.81093710660934 92.426412805914879 185.88035698235035 70.917980328202248 117.41894190013409 3890.6154158860445 134.68634258210659 511.23812317848206 77.668022200465202 1572.0079920887947
leaf_count=5638 28841 1539 1118 3789 2843 6785 927 2947 674 1712 2402 3998 1053 13310 1311 741 1395 8692 516 3988 600 385 987 307 568 19924 563 2341 358 7825
internal_value=0.000130746 -0.0109882 0.0111111 -0.016264 0.0117045 -0.0341304 0.00919987 -0.0464016 -0.0185069 -0.0476693 -0.0112665 -0.0573487 -0.0215029 0.0578368 0.0273409 -0.0589461 -0.0231317 0.0645227 0.0280746 0.0595401 0.0280504 -0.0524898 -0.01992 -0.0585539 -0.0169801 -0.0633659 -0.0459024 0.0596443 0.0305982 -0.06405
internal_weight=24002.5 20205.6 3894.03 16311.5 6358.25 9953.3 2196.69 7756.6 2186.19 2780.13 862.833 5570.42 800.728 3578.12 883.149 1684.52 464.482 2209.51 361.957 1209.62 338.991 987.074 278.307 1445.5 188.337 4769.69 879.073 740.691 229.453 1917.3
internal_count=128077 99236 18100 81136 30942 50194 10676 39518 11033 13478 4114 28485 4000 17464 4154 7774 2136 10326 1634 5515 1527 5161 1372 7660 875 24485 4561 3373 1032 9364
is_linear=0
shrinkage=0.05


Tree=26
num_leaves=31
num_cat=0
split_feature=8 9 8 9 9 8 8 9 9 8 9 8 9 8 9 8 9 8 9 8 8 9 9 8 8 9 9 8 8 9
split_gain=682.55 5600.4 1163.77 4817.49 1091.56 2748.83 931.172 2759.77 474.208 961.548 281.147 444.792 217.895 366.719 204.162 387.763 201.472 377.55 173.128 764.531 164.976 373.331 157.318 300.622 149.49 411.013 140.794 311.128 85.3976 196.885
threshold=88.010094632119674 1.7776260442428105 59.586857879483937 1.7219581218552888 1.6114093318635274 72.423566959079579 68.25473022442911 1.8502936195121817 1.6721159274004871 80.35792257263509 1.6780926156111737 53.708173875542052 1.8206884973946662 96.711286280115146 1.7360724871892794 92.759266327839342 1.7675525813223112 56.615602404289753 1.9601027568716163 73.014337697695908 75.937373725964008 1.5664668196145459 1.8111599020606051 62.128046918339351 68.25473022442911 1.5333112677236818 1.8958682110873721 65.103499927483355 82.500174033319794 1.6445919488578775
decision_type=2 2 2 2 2 2 2 2 2 2 2 2 2 2 2 2 2 2 2 2 2 2 2 2 2 2 2 2 2 2
left_child=2 14 3 10 5 24 7 22 9 -8 -1 -12 13 -3 -2 -16 17 -5 -10 -20 21 -7 -6 -24 -4 -26 27 -9 29 -11
right_child=1 12 4 16 6 20 8 26 18 28 11 -13 -14 -15 15 -17 -18 -19 19 -21 -22 -23 23 -25 25 -27 -28 -29 -30 -31
leaf_value=-0.049228674600557278 0.065913624310241004 -0.040634141041126323 -0.049379546243343585 0.061802378040469223 -0.043572877590871723 0.069725116483432548 -0.039067532338804348 0.064976609258685258 -0.039947065173884917 0.075451341417509324 0.060357646491847397 -0.045106319024527629 -0.048002845560088596 0.051100240883119041 -0.026912259885445624 0.065632882166496237 0.068211306875345143 -0.039035432258258958 0.069856460258209407 -0.04469399216955261 0.065880890593271277 -0.027319135866969043 0.064626372995906567 -0.038699225350463731 0.058302461725554422 -0.045766693467730497 0.069249081579088587 -0.030704714426671595 0.067779120895353359 -0.046813517378244476
leaf_weight=1663.8746057897806 2603.4420285969973 337.11016720533371 944.74492916464806 303.76976914703846 1528.5013854056597 237.74410423636436 683.125438131392 254.25229697674513 4961.5019426569343 72.882710039615631 165.40052485466003 252.40710274130106 1979.4455172270536 160.84587644040585 182.65912592411041 297.31124860048294 2170.7774540781975 133.57374252378941 198.71273439377546 544.75535848736763 1265.1713876575232 169.82422062009573 104.32367569208145 215.92683419585228 135.78730839490891 314.2729018330574 903.58417613059282 127.50399503856897 331.17472200095654 59.902496412396431
leaf_count=8674 14588 1889 4977 1549 8895 1210 3758 1238 29075 352 825 1349 10978 780 965 1497 11599 711 964 2992 6969 848 499 1243 668 1626 4678 687 1711 283
internal_value=0.000127712 0.0154127 -0.00466266 0.0167007 -0.0123379 0.0137491 -0.0203514 0.00222421 -0.0306773 -0.00134303 -0.0400213 -0.00335108 -0.0405657 -0.0109985 0.0603891 0.0304153 0.0619734 0.0310025 -0.0365753 -0.0140719 0.0569682 0.0292923 -0.036897 -0.00503058 -0.0380823 -0.0143621 0.0584922 0.03302 0.0541982 0.0203011
internal_weight=23304.3 5560.81 17743.5 4689.8 13053.7 3067.54 9986.15 3134.09 6852.06 1147.09 2081.68 417.808 2477.4 497.956 3083.41 479.97 2608.12 437.344 5704.97 743.468 1672.74 407.568 1848.75 320.251 1394.81 450.06 1285.34 381.756 463.96 132.785
internal_count=128077 30697 97380 24707 72673 16298 56375 17240 39135 6104 10848 2174 13647 2669 17050 2462 13859 2260 33031 3956 9027 2058 10637 1742 7271 2294 6603 1925 2346 635
is_linear=0
shrinkage=0.05


Tree=27
num_leaves=31
num_cat=0
split_feature=8 9 8 9 9 8 8 9 9 8 9 8 9 8 9 8 9 8 8 9 9 8 9 8 9 8 8 9 8 9
split_gain=630.074 5193.89 1070.81 4463.24 1001.28 2668.4 935.031 2550.85 381.499 844.413 256.238 404.423 200.255 334.634 200.188 397.843 194.746 348.366 177.52 449.101 164.85 353.495 147.408 639.687 144.761 298.607 138.861 354.574 90.2687 221.103
threshold=88.010094632119674 1.7776260442428105 59.586857879483937 1.7219581218552888 1.6192086830398582 73.202482610765188 68.84782492285153 1.8522112685962022 1.6900252624308867 82.500174033319794 1.6582893538846648 53.708173875542052 1.8206884973946662 96.711286280115146 1.7260633895169231 91.757025178948979 1.7636840272627177 56.42926409893159 68.84782492285153 1.5393332530073365 1.9072846620599149 65.500710769612922 1.9601027568716163 73.014337697695908 1.8111599020606051 62.128046918339351 76.944450217360455 1.581901154116925 79.956455414211234 1.6445919488578775
decision_type=2 2 2 2 2 2 2 2 2 2 2 2 2 2 2 2 2 2 2 2 2 2 2 2 2 2 2 2 2 2
left_child=2 14 3 10 5 18 7 24 9 28 -1 -12 13 -3 -2 -16 17 -5 -4 -20 21 -9 -10 -24 -6 -26 27 -7 -8 -30
right_child=1 12 4 16 6 26 8 20 22 -11 11 -13 -14 -15 15 -17 -18 -19 19 -21 -22 -23 23 -25 25 -27 -28 -29 29 -31
